=== Run information ===

Scheme:       weka.classifiers.trees.J48 -C 0.25 -M 2
Relation:     PGA_Data_Finish_Encoded-weka.filters.unsupervised.attribute.NumericToNominal-R22-weka.filters.unsupervised.attribute.Remove-R3-15
Instances:    16606
Attributes:   9
              hole_par
              strokes
              sg_putt
              sg_arg
              sg_app
              sg_ott
              sg_t2g
              sg_total
              Finish
Test mode:    split 66.0% train, remainder test

=== Classifier model (full training set) ===

J48 pruned tree
------------------

sg_total <= 0.91
|   sg_total <= 0.2
|   |   hole_par <= 288
|   |   |   sg_total <= -0.51
|   |   |   |   hole_par <= 280
|   |   |   |   |   hole_par <= 215: 6 (224.0)
|   |   |   |   |   hole_par > 215
|   |   |   |   |   |   sg_total <= -1.1: 6 (290.0/41.0)
|   |   |   |   |   |   sg_total > -1.1
|   |   |   |   |   |   |   strokes <= 285
|   |   |   |   |   |   |   |   strokes <= 275
|   |   |   |   |   |   |   |   |   sg_total <= -0.85: 5 (7.0/1.0)
|   |   |   |   |   |   |   |   |   sg_total > -0.85
|   |   |   |   |   |   |   |   |   |   strokes <= 274
|   |   |   |   |   |   |   |   |   |   |   sg_total <= -0.69: 6 (4.0)
|   |   |   |   |   |   |   |   |   |   |   sg_total > -0.69: 5 (4.0)
|   |   |   |   |   |   |   |   |   |   strokes > 274: 6 (5.0)
|   |   |   |   |   |   |   |   strokes > 275
|   |   |   |   |   |   |   |   |   sg_total <= -0.62
|   |   |   |   |   |   |   |   |   |   sg_total <= -0.7
|   |   |   |   |   |   |   |   |   |   |   sg_total <= -0.96
|   |   |   |   |   |   |   |   |   |   |   |   sg_total <= -0.98
|   |   |   |   |   |   |   |   |   |   |   |   |   sg_total <= -1.07
|   |   |   |   |   |   |   |   |   |   |   |   |   |   strokes <= 282: 3 (4.0/1.0)
|   |   |   |   |   |   |   |   |   |   |   |   |   |   strokes > 282: 6 (3.0)
|   |   |   |   |   |   |   |   |   |   |   |   |   sg_total > -1.07: 6 (16.0)
|   |   |   |   |   |   |   |   |   |   |   |   sg_total > -0.98: 3 (3.0)
|   |   |   |   |   |   |   |   |   |   |   sg_total > -0.96
|   |   |   |   |   |   |   |   |   |   |   |   sg_putt <= 1.03
|   |   |   |   |   |   |   |   |   |   |   |   |   sg_total <= -0.95
|   |   |   |   |   |   |   |   |   |   |   |   |   |   strokes <= 281: 5 (6.0/1.0)
|   |   |   |   |   |   |   |   |   |   |   |   |   |   strokes > 281: 6 (2.0)
|   |   |   |   |   |   |   |   |   |   |   |   |   sg_total > -0.95
|   |   |   |   |   |   |   |   |   |   |   |   |   |   sg_total <= -0.77: 6 (45.0/5.0)
|   |   |   |   |   |   |   |   |   |   |   |   |   |   sg_total > -0.77
|   |   |   |   |   |   |   |   |   |   |   |   |   |   |   strokes <= 282
|   |   |   |   |   |   |   |   |   |   |   |   |   |   |   |   strokes <= 278: 6 (6.0)
|   |   |   |   |   |   |   |   |   |   |   |   |   |   |   |   strokes > 278
|   |   |   |   |   |   |   |   |   |   |   |   |   |   |   |   |   strokes <= 280: 5 (3.0)
|   |   |   |   |   |   |   |   |   |   |   |   |   |   |   |   |   strokes > 280
|   |   |   |   |   |   |   |   |   |   |   |   |   |   |   |   |   |   sg_total <= -0.73
|   |   |   |   |   |   |   |   |   |   |   |   |   |   |   |   |   |   |   strokes <= 281: 5 (3.0)
|   |   |   |   |   |   |   |   |   |   |   |   |   |   |   |   |   |   |   strokes > 281: 6 (2.0)
|   |   |   |   |   |   |   |   |   |   |   |   |   |   |   |   |   |   sg_total > -0.73: 6 (5.0)
|   |   |   |   |   |   |   |   |   |   |   |   |   |   |   strokes > 282: 5 (3.0/1.0)
|   |   |   |   |   |   |   |   |   |   |   |   sg_putt > 1.03
|   |   |   |   |   |   |   |   |   |   |   |   |   sg_putt <= 1.46: 2 (3.0/1.0)
|   |   |   |   |   |   |   |   |   |   |   |   |   sg_putt > 1.46: 3 (2.0)
|   |   |   |   |   |   |   |   |   |   sg_total > -0.7
|   |   |   |   |   |   |   |   |   |   |   strokes <= 281
|   |   |   |   |   |   |   |   |   |   |   |   strokes <= 280
|   |   |   |   |   |   |   |   |   |   |   |   |   strokes <= 279
|   |   |   |   |   |   |   |   |   |   |   |   |   |   sg_total <= -0.69
|   |   |   |   |   |   |   |   |   |   |   |   |   |   |   sg_arg <= 0.25
|   |   |   |   |   |   |   |   |   |   |   |   |   |   |   |   sg_arg <= -0.62: 2 (2.0/1.0)
|   |   |   |   |   |   |   |   |   |   |   |   |   |   |   |   sg_arg > -0.62: 6 (6.0/2.0)
|   |   |   |   |   |   |   |   |   |   |   |   |   |   |   sg_arg > 0.25: 3 (2.0)
|   |   |   |   |   |   |   |   |   |   |   |   |   |   sg_total > -0.69: 6 (2.0)
|   |   |   |   |   |   |   |   |   |   |   |   |   strokes > 279: 2 (3.0)
|   |   |   |   |   |   |   |   |   |   |   |   strokes > 280: 3 (5.0)
|   |   |   |   |   |   |   |   |   |   |   strokes > 281
|   |   |   |   |   |   |   |   |   |   |   |   strokes <= 283: 6 (7.0)
|   |   |   |   |   |   |   |   |   |   |   |   strokes > 283
|   |   |   |   |   |   |   |   |   |   |   |   |   strokes <= 284: 2 (4.0)
|   |   |   |   |   |   |   |   |   |   |   |   |   strokes > 284: 6 (5.0)
|   |   |   |   |   |   |   |   |   sg_total > -0.62
|   |   |   |   |   |   |   |   |   |   sg_total <= -0.58
|   |   |   |   |   |   |   |   |   |   |   strokes <= 282
|   |   |   |   |   |   |   |   |   |   |   |   strokes <= 281: 6 (7.0)
|   |   |   |   |   |   |   |   |   |   |   |   strokes > 281: 5 (5.0)
|   |   |   |   |   |   |   |   |   |   |   strokes > 282: 6 (8.0)
|   |   |   |   |   |   |   |   |   |   sg_total > -0.58: 6 (15.0)
|   |   |   |   |   |   |   strokes > 285
|   |   |   |   |   |   |   |   sg_total <= -1
|   |   |   |   |   |   |   |   |   sg_total <= -1.01
|   |   |   |   |   |   |   |   |   |   strokes <= 289: 6 (5.0)
|   |   |   |   |   |   |   |   |   |   strokes > 289: 5 (2.0)
|   |   |   |   |   |   |   |   |   sg_total > -1.01: 5 (8.0)
|   |   |   |   |   |   |   |   sg_total > -1: 6 (73.0/4.0)
|   |   |   |   hole_par > 280
|   |   |   |   |   strokes <= 286
|   |   |   |   |   |   strokes <= 275
|   |   |   |   |   |   |   hole_par <= 287
|   |   |   |   |   |   |   |   strokes <= 272: 1 (2.0/1.0)
|   |   |   |   |   |   |   |   strokes > 272
|   |   |   |   |   |   |   |   |   hole_par <= 282: 5 (10.0/4.0)
|   |   |   |   |   |   |   |   |   hole_par > 282: 6 (2.0)
|   |   |   |   |   |   |   hole_par > 287: 4 (4.0/1.0)
|   |   |   |   |   |   strokes > 275
|   |   |   |   |   |   |   hole_par <= 286: 6 (382.0/18.0)
|   |   |   |   |   |   |   hole_par > 286
|   |   |   |   |   |   |   |   hole_par <= 287
|   |   |   |   |   |   |   |   |   strokes <= 283
|   |   |   |   |   |   |   |   |   |   sg_putt <= 0.02
|   |   |   |   |   |   |   |   |   |   |   sg_total <= -1.17: 5 (5.0/1.0)
|   |   |   |   |   |   |   |   |   |   |   sg_total > -1.17: 3 (8.0/3.0)
|   |   |   |   |   |   |   |   |   |   sg_putt > 0.02
|   |   |   |   |   |   |   |   |   |   |   sg_ott <= -0.31: 6 (2.0)
|   |   |   |   |   |   |   |   |   |   |   sg_ott > -0.31: 4 (2.0)
|   |   |   |   |   |   |   |   |   strokes > 283
|   |   |   |   |   |   |   |   |   |   strokes <= 285
|   |   |   |   |   |   |   |   |   |   |   sg_total <= -1.79: 4 (4.0/1.0)
|   |   |   |   |   |   |   |   |   |   |   sg_total > -1.79
|   |   |   |   |   |   |   |   |   |   |   |   sg_total <= -0.73
|   |   |   |   |   |   |   |   |   |   |   |   |   strokes <= 284
|   |   |   |   |   |   |   |   |   |   |   |   |   |   sg_ott <= -1.07: 5 (2.0)
|   |   |   |   |   |   |   |   |   |   |   |   |   |   sg_ott > -1.07
|   |   |   |   |   |   |   |   |   |   |   |   |   |   |   sg_app <= -1.47: 5 (3.0/1.0)
|   |   |   |   |   |   |   |   |   |   |   |   |   |   |   sg_app > -1.47: 6 (3.0)
|   |   |   |   |   |   |   |   |   |   |   |   |   strokes > 284
|   |   |   |   |   |   |   |   |   |   |   |   |   |   sg_arg <= -0.8: 5 (2.0)
|   |   |   |   |   |   |   |   |   |   |   |   |   |   sg_arg > -0.8: 6 (4.0)
|   |   |   |   |   |   |   |   |   |   |   |   sg_total > -0.73: 4 (3.0/1.0)
|   |   |   |   |   |   |   |   |   |   strokes > 285: 6 (11.0/1.0)
|   |   |   |   |   |   |   |   hole_par > 287
|   |   |   |   |   |   |   |   |   sg_total <= -0.84: 6 (149.0/10.0)
|   |   |   |   |   |   |   |   |   sg_total > -0.84
|   |   |   |   |   |   |   |   |   |   sg_total <= -0.82: 5 (11.0/2.0)
|   |   |   |   |   |   |   |   |   |   sg_total > -0.82: 6 (72.0/18.0)
|   |   |   |   |   strokes > 286: 6 (1048.0/25.0)
|   |   |   sg_total > -0.51
|   |   |   |   sg_total <= 0.04
|   |   |   |   |   strokes <= 284
|   |   |   |   |   |   strokes <= 282
|   |   |   |   |   |   |   strokes <= 281
|   |   |   |   |   |   |   |   strokes <= 272
|   |   |   |   |   |   |   |   |   hole_par <= 280
|   |   |   |   |   |   |   |   |   |   strokes <= 271: 6 (80.0)
|   |   |   |   |   |   |   |   |   |   strokes > 271
|   |   |   |   |   |   |   |   |   |   |   sg_total <= -0.1
|   |   |   |   |   |   |   |   |   |   |   |   sg_total <= -0.19: 6 (3.0)
|   |   |   |   |   |   |   |   |   |   |   |   sg_total > -0.19: 4 (3.0)
|   |   |   |   |   |   |   |   |   |   |   sg_total > -0.1: 5 (7.0)
|   |   |   |   |   |   |   |   |   hole_par > 280
|   |   |   |   |   |   |   |   |   |   sg_total <= -0.24: 1 (6.0/3.0)
|   |   |   |   |   |   |   |   |   |   sg_total > -0.24
|   |   |   |   |   |   |   |   |   |   |   sg_putt <= -0.92: 3 (2.0)
|   |   |   |   |   |   |   |   |   |   |   sg_putt > -0.92: 2 (4.0)
|   |   |   |   |   |   |   |   strokes > 272
|   |   |   |   |   |   |   |   |   hole_par <= 280
|   |   |   |   |   |   |   |   |   |   sg_total <= -0.45
|   |   |   |   |   |   |   |   |   |   |   strokes <= 279
|   |   |   |   |   |   |   |   |   |   |   |   strokes <= 277: 6 (10.0)
|   |   |   |   |   |   |   |   |   |   |   |   strokes > 277: 4 (7.0)
|   |   |   |   |   |   |   |   |   |   |   strokes > 279
|   |   |   |   |   |   |   |   |   |   |   |   strokes <= 280: 5 (8.0)
|   |   |   |   |   |   |   |   |   |   |   |   strokes > 280: 6 (3.0)
|   |   |   |   |   |   |   |   |   |   sg_total > -0.45
|   |   |   |   |   |   |   |   |   |   |   strokes <= 275
|   |   |   |   |   |   |   |   |   |   |   |   sg_total <= -0.36: 4 (3.0)
|   |   |   |   |   |   |   |   |   |   |   |   sg_total > -0.36: 6 (57.0)
|   |   |   |   |   |   |   |   |   |   |   strokes > 275
|   |   |   |   |   |   |   |   |   |   |   |   sg_total <= -0.41: 6 (18.0/1.0)
|   |   |   |   |   |   |   |   |   |   |   |   sg_total > -0.41
|   |   |   |   |   |   |   |   |   |   |   |   |   sg_total <= -0.38: 2 (7.0/1.0)
|   |   |   |   |   |   |   |   |   |   |   |   |   sg_total > -0.38
|   |   |   |   |   |   |   |   |   |   |   |   |   |   strokes <= 279
|   |   |   |   |   |   |   |   |   |   |   |   |   |   |   sg_app <= -0.15: 6 (30.0/7.0)
|   |   |   |   |   |   |   |   |   |   |   |   |   |   |   sg_app > -0.15
|   |   |   |   |   |   |   |   |   |   |   |   |   |   |   |   sg_arg <= 0.13
|   |   |   |   |   |   |   |   |   |   |   |   |   |   |   |   |   sg_ott <= -0.21: 6 (14.0)
|   |   |   |   |   |   |   |   |   |   |   |   |   |   |   |   |   sg_ott > -0.21
|   |   |   |   |   |   |   |   |   |   |   |   |   |   |   |   |   |   sg_t2g <= -0.01: 2 (6.0)
|   |   |   |   |   |   |   |   |   |   |   |   |   |   |   |   |   |   sg_t2g > -0.01
|   |   |   |   |   |   |   |   |   |   |   |   |   |   |   |   |   |   |   sg_putt <= -0.89
|   |   |   |   |   |   |   |   |   |   |   |   |   |   |   |   |   |   |   |   sg_putt <= -1.04
|   |   |   |   |   |   |   |   |   |   |   |   |   |   |   |   |   |   |   |   |   sg_app <= 0.93: 6 (2.0)
|   |   |   |   |   |   |   |   |   |   |   |   |   |   |   |   |   |   |   |   |   sg_app > 0.93: 2 (2.0)
|   |   |   |   |   |   |   |   |   |   |   |   |   |   |   |   |   |   |   |   sg_putt > -1.04: 4 (2.0)
|   |   |   |   |   |   |   |   |   |   |   |   |   |   |   |   |   |   |   sg_putt > -0.89: 6 (13.0/1.0)
|   |   |   |   |   |   |   |   |   |   |   |   |   |   |   |   sg_arg > 0.13: 2 (4.0)
|   |   |   |   |   |   |   |   |   |   |   |   |   |   strokes > 279
|   |   |   |   |   |   |   |   |   |   |   |   |   |   |   sg_total <= -0.32: 4 (8.0)
|   |   |   |   |   |   |   |   |   |   |   |   |   |   |   sg_total > -0.32
|   |   |   |   |   |   |   |   |   |   |   |   |   |   |   |   strokes <= 280
|   |   |   |   |   |   |   |   |   |   |   |   |   |   |   |   |   sg_total <= 0.01
|   |   |   |   |   |   |   |   |   |   |   |   |   |   |   |   |   |   sg_total <= -0.11: 6 (14.0)
|   |   |   |   |   |   |   |   |   |   |   |   |   |   |   |   |   |   sg_total > -0.11
|   |   |   |   |   |   |   |   |   |   |   |   |   |   |   |   |   |   |   sg_total <= -0.07: 4 (8.0)
|   |   |   |   |   |   |   |   |   |   |   |   |   |   |   |   |   |   |   sg_total > -0.07: 6 (7.0)
|   |   |   |   |   |   |   |   |   |   |   |   |   |   |   |   |   sg_total > 0.01: 2 (2.0)
|   |   |   |   |   |   |   |   |   |   |   |   |   |   |   |   strokes > 280: 6 (20.0/4.0)
|   |   |   |   |   |   |   |   |   hole_par > 280
|   |   |   |   |   |   |   |   |   |   strokes <= 276
|   |   |   |   |   |   |   |   |   |   |   strokes <= 275
|   |   |   |   |   |   |   |   |   |   |   |   sg_ott <= -0.57
|   |   |   |   |   |   |   |   |   |   |   |   |   strokes <= 274: 3 (4.0/2.0)
|   |   |   |   |   |   |   |   |   |   |   |   |   strokes > 274: 5 (4.0)
|   |   |   |   |   |   |   |   |   |   |   |   sg_ott > -0.57
|   |   |   |   |   |   |   |   |   |   |   |   |   hole_par <= 287
|   |   |   |   |   |   |   |   |   |   |   |   |   |   hole_par <= 282
|   |   |   |   |   |   |   |   |   |   |   |   |   |   |   sg_app <= 0
|   |   |   |   |   |   |   |   |   |   |   |   |   |   |   |   sg_putt <= 0.22: 6 (4.0/1.0)
|   |   |   |   |   |   |   |   |   |   |   |   |   |   |   |   sg_putt > 0.22: 4 (2.0)
|   |   |   |   |   |   |   |   |   |   |   |   |   |   |   sg_app > 0
|   |   |   |   |   |   |   |   |   |   |   |   |   |   |   |   sg_putt <= -0.85: 4 (3.0)
|   |   |   |   |   |   |   |   |   |   |   |   |   |   |   |   sg_putt > -0.85
|   |   |   |   |   |   |   |   |   |   |   |   |   |   |   |   |   sg_total <= -0.1: 5 (3.0)
|   |   |   |   |   |   |   |   |   |   |   |   |   |   |   |   |   sg_total > -0.1: 4 (2.0)
|   |   |   |   |   |   |   |   |   |   |   |   |   |   hole_par > 282: 6 (9.0/2.0)
|   |   |   |   |   |   |   |   |   |   |   |   |   hole_par > 287
|   |   |   |   |   |   |   |   |   |   |   |   |   |   strokes <= 274: 5 (4.0)
|   |   |   |   |   |   |   |   |   |   |   |   |   |   strokes > 274
|   |   |   |   |   |   |   |   |   |   |   |   |   |   |   sg_total <= -0.31: 5 (4.0/1.0)
|   |   |   |   |   |   |   |   |   |   |   |   |   |   |   sg_total > -0.31: 4 (2.0)
|   |   |   |   |   |   |   |   |   |   |   strokes > 275
|   |   |   |   |   |   |   |   |   |   |   |   hole_par <= 285
|   |   |   |   |   |   |   |   |   |   |   |   |   sg_ott <= -0.42: 6 (4.0)
|   |   |   |   |   |   |   |   |   |   |   |   |   sg_ott > -0.42
|   |   |   |   |   |   |   |   |   |   |   |   |   |   sg_arg <= -0.37
|   |   |   |   |   |   |   |   |   |   |   |   |   |   |   sg_total <= -0.03: 6 (2.0)
|   |   |   |   |   |   |   |   |   |   |   |   |   |   |   sg_total > -0.03: 5 (2.0)
|   |   |   |   |   |   |   |   |   |   |   |   |   |   sg_arg > -0.37: 5 (12.0)
|   |   |   |   |   |   |   |   |   |   |   |   hole_par > 285
|   |   |   |   |   |   |   |   |   |   |   |   |   sg_arg <= 0.66: 6 (7.0)
|   |   |   |   |   |   |   |   |   |   |   |   |   sg_arg > 0.66: 4 (2.0/1.0)
|   |   |   |   |   |   |   |   |   |   strokes > 276
|   |   |   |   |   |   |   |   |   |   |   hole_par <= 285
|   |   |   |   |   |   |   |   |   |   |   |   strokes <= 280
|   |   |   |   |   |   |   |   |   |   |   |   |   strokes <= 279
|   |   |   |   |   |   |   |   |   |   |   |   |   |   sg_total <= -0.26
|   |   |   |   |   |   |   |   |   |   |   |   |   |   |   sg_total <= -0.27: 6 (48.0)
|   |   |   |   |   |   |   |   |   |   |   |   |   |   |   sg_total > -0.27: 5 (4.0)
|   |   |   |   |   |   |   |   |   |   |   |   |   |   sg_total > -0.26: 6 (107.0/3.0)
|   |   |   |   |   |   |   |   |   |   |   |   |   strokes > 279: 6 (23.0)
|   |   |   |   |   |   |   |   |   |   |   |   strokes > 280
|   |   |   |   |   |   |   |   |   |   |   |   |   sg_total <= -0.16: 6 (9.0)
|   |   |   |   |   |   |   |   |   |   |   |   |   sg_total > -0.16
|   |   |   |   |   |   |   |   |   |   |   |   |   |   sg_total <= -0.02
|   |   |   |   |   |   |   |   |   |   |   |   |   |   |   sg_total <= -0.11: 5 (9.0)
|   |   |   |   |   |   |   |   |   |   |   |   |   |   |   sg_total > -0.11
|   |   |   |   |   |   |   |   |   |   |   |   |   |   |   |   sg_total <= -0.05: 6 (2.0)
|   |   |   |   |   |   |   |   |   |   |   |   |   |   |   |   sg_total > -0.05: 5 (7.0)
|   |   |   |   |   |   |   |   |   |   |   |   |   |   sg_total > -0.02
|   |   |   |   |   |   |   |   |   |   |   |   |   |   |   sg_total <= 0: 6 (5.0)
|   |   |   |   |   |   |   |   |   |   |   |   |   |   |   sg_total > 0
|   |   |   |   |   |   |   |   |   |   |   |   |   |   |   |   sg_total <= 0.01: 5 (4.0)
|   |   |   |   |   |   |   |   |   |   |   |   |   |   |   |   sg_total > 0.01: 6 (5.0)
|   |   |   |   |   |   |   |   |   |   |   hole_par > 285
|   |   |   |   |   |   |   |   |   |   |   |   hole_par <= 287
|   |   |   |   |   |   |   |   |   |   |   |   |   strokes <= 278: 5 (3.0/1.0)
|   |   |   |   |   |   |   |   |   |   |   |   |   strokes > 278
|   |   |   |   |   |   |   |   |   |   |   |   |   |   sg_app <= 1.13: 3 (8.0/4.0)
|   |   |   |   |   |   |   |   |   |   |   |   |   |   sg_app > 1.13: 4 (2.0/1.0)
|   |   |   |   |   |   |   |   |   |   |   |   hole_par > 287
|   |   |   |   |   |   |   |   |   |   |   |   |   sg_total <= -0.48: 5 (4.0)
|   |   |   |   |   |   |   |   |   |   |   |   |   sg_total > -0.48
|   |   |   |   |   |   |   |   |   |   |   |   |   |   strokes <= 277
|   |   |   |   |   |   |   |   |   |   |   |   |   |   |   sg_total <= -0.01
|   |   |   |   |   |   |   |   |   |   |   |   |   |   |   |   sg_total <= -0.17: 6 (6.0/1.0)
|   |   |   |   |   |   |   |   |   |   |   |   |   |   |   |   sg_total > -0.17: 4 (6.0/2.0)
|   |   |   |   |   |   |   |   |   |   |   |   |   |   |   sg_total > -0.01: 5 (7.0)
|   |   |   |   |   |   |   |   |   |   |   |   |   |   strokes > 277
|   |   |   |   |   |   |   |   |   |   |   |   |   |   |   sg_total <= -0.23
|   |   |   |   |   |   |   |   |   |   |   |   |   |   |   |   sg_total <= -0.37: 6 (13.0)
|   |   |   |   |   |   |   |   |   |   |   |   |   |   |   |   sg_total > -0.37
|   |   |   |   |   |   |   |   |   |   |   |   |   |   |   |   |   sg_total <= -0.3: 4 (14.0)
|   |   |   |   |   |   |   |   |   |   |   |   |   |   |   |   |   sg_total > -0.3
|   |   |   |   |   |   |   |   |   |   |   |   |   |   |   |   |   |   strokes <= 278: 5 (3.0)
|   |   |   |   |   |   |   |   |   |   |   |   |   |   |   |   |   |   strokes > 278
|   |   |   |   |   |   |   |   |   |   |   |   |   |   |   |   |   |   |   strokes <= 280: 6 (7.0/1.0)
|   |   |   |   |   |   |   |   |   |   |   |   |   |   |   |   |   |   |   strokes > 280: 4 (2.0/1.0)
|   |   |   |   |   |   |   |   |   |   |   |   |   |   |   sg_total > -0.23
|   |   |   |   |   |   |   |   |   |   |   |   |   |   |   |   strokes <= 279: 6 (21.0)
|   |   |   |   |   |   |   |   |   |   |   |   |   |   |   |   strokes > 279
|   |   |   |   |   |   |   |   |   |   |   |   |   |   |   |   |   sg_total <= -0.09: 6 (19.0)
|   |   |   |   |   |   |   |   |   |   |   |   |   |   |   |   |   sg_total > -0.09
|   |   |   |   |   |   |   |   |   |   |   |   |   |   |   |   |   |   sg_total <= -0.04: 4 (6.0)
|   |   |   |   |   |   |   |   |   |   |   |   |   |   |   |   |   |   sg_total > -0.04: 6 (7.0/1.0)
|   |   |   |   |   |   |   strokes > 281
|   |   |   |   |   |   |   |   sg_total <= -0.02
|   |   |   |   |   |   |   |   |   sg_total <= -0.16: 6 (68.0/3.0)
|   |   |   |   |   |   |   |   |   sg_total > -0.16
|   |   |   |   |   |   |   |   |   |   sg_total <= -0.15: 3 (8.0/1.0)
|   |   |   |   |   |   |   |   |   |   sg_total > -0.15: 6 (51.0)
|   |   |   |   |   |   |   |   sg_total > -0.02
|   |   |   |   |   |   |   |   |   sg_total <= 0: 4 (7.0)
|   |   |   |   |   |   |   |   |   sg_total > 0: 6 (18.0/1.0)
|   |   |   |   |   |   strokes > 282
|   |   |   |   |   |   |   sg_total <= -0.26
|   |   |   |   |   |   |   |   sg_total <= -0.4
|   |   |   |   |   |   |   |   |   sg_total <= -0.41
|   |   |   |   |   |   |   |   |   |   sg_app <= 0.64: 6 (33.0/3.0)
|   |   |   |   |   |   |   |   |   |   sg_app > 0.64: 4 (3.0/1.0)
|   |   |   |   |   |   |   |   |   sg_total > -0.41
|   |   |   |   |   |   |   |   |   |   strokes <= 283: 4 (8.0)
|   |   |   |   |   |   |   |   |   |   strokes > 283: 6 (3.0)
|   |   |   |   |   |   |   |   sg_total > -0.4: 6 (54.0/1.0)
|   |   |   |   |   |   |   sg_total > -0.26
|   |   |   |   |   |   |   |   sg_total <= -0.25: 5 (15.0)
|   |   |   |   |   |   |   |   sg_total > -0.25
|   |   |   |   |   |   |   |   |   hole_par <= 282
|   |   |   |   |   |   |   |   |   |   sg_total <= -0.1: 6 (26.0)
|   |   |   |   |   |   |   |   |   |   sg_total > -0.1: 5 (17.0/1.0)
|   |   |   |   |   |   |   |   |   hole_par > 282
|   |   |   |   |   |   |   |   |   |   hole_par <= 286
|   |   |   |   |   |   |   |   |   |   |   sg_total <= -0.15
|   |   |   |   |   |   |   |   |   |   |   |   sg_total <= -0.16: 6 (18.0)
|   |   |   |   |   |   |   |   |   |   |   |   sg_total > -0.16: 5 (4.0)
|   |   |   |   |   |   |   |   |   |   |   sg_total > -0.15
|   |   |   |   |   |   |   |   |   |   |   |   sg_total <= -0.14: 4 (6.0)
|   |   |   |   |   |   |   |   |   |   |   |   sg_total > -0.14
|   |   |   |   |   |   |   |   |   |   |   |   |   sg_total <= -0.01: 6 (15.0)
|   |   |   |   |   |   |   |   |   |   |   |   |   sg_total > -0.01: 4 (7.0)
|   |   |   |   |   |   |   |   |   |   hole_par > 286
|   |   |   |   |   |   |   |   |   |   |   sg_total <= -0.13
|   |   |   |   |   |   |   |   |   |   |   |   sg_total <= -0.2: 6 (8.0/2.0)
|   |   |   |   |   |   |   |   |   |   |   |   sg_total > -0.2: 4 (6.0/1.0)
|   |   |   |   |   |   |   |   |   |   |   sg_total > -0.13
|   |   |   |   |   |   |   |   |   |   |   |   sg_total <= -0.05: 6 (11.0)
|   |   |   |   |   |   |   |   |   |   |   |   sg_total > -0.05
|   |   |   |   |   |   |   |   |   |   |   |   |   sg_total <= -0.01: 5 (7.0)
|   |   |   |   |   |   |   |   |   |   |   |   |   sg_total > -0.01: 6 (9.0)
|   |   |   |   |   strokes > 284
|   |   |   |   |   |   strokes <= 285
|   |   |   |   |   |   |   hole_par <= 285
|   |   |   |   |   |   |   |   sg_total <= -0.4: 6 (21.0)
|   |   |   |   |   |   |   |   sg_total > -0.4
|   |   |   |   |   |   |   |   |   sg_total <= 0
|   |   |   |   |   |   |   |   |   |   sg_total <= -0.09
|   |   |   |   |   |   |   |   |   |   |   sg_total <= -0.39: 5 (5.0)
|   |   |   |   |   |   |   |   |   |   |   sg_total > -0.39
|   |   |   |   |   |   |   |   |   |   |   |   sg_total <= -0.3: 6 (13.0)
|   |   |   |   |   |   |   |   |   |   |   |   sg_total > -0.3
|   |   |   |   |   |   |   |   |   |   |   |   |   sg_total <= -0.17
|   |   |   |   |   |   |   |   |   |   |   |   |   |   hole_par <= 282: 5 (8.0)
|   |   |   |   |   |   |   |   |   |   |   |   |   |   hole_par > 282
|   |   |   |   |   |   |   |   |   |   |   |   |   |   |   sg_total <= -0.24: 6 (2.0)
|   |   |   |   |   |   |   |   |   |   |   |   |   |   |   sg_total > -0.24: 5 (3.0)
|   |   |   |   |   |   |   |   |   |   |   |   |   sg_total > -0.17: 6 (4.0)
|   |   |   |   |   |   |   |   |   |   sg_total > -0.09: 5 (10.0)
|   |   |   |   |   |   |   |   |   sg_total > 0: 6 (5.0)
|   |   |   |   |   |   |   hole_par > 285
|   |   |   |   |   |   |   |   sg_total <= -0.33
|   |   |   |   |   |   |   |   |   sg_total <= -0.44: 6 (3.0)
|   |   |   |   |   |   |   |   |   sg_total > -0.44: 5 (6.0/1.0)
|   |   |   |   |   |   |   |   sg_total > -0.33: 6 (54.0/3.0)
|   |   |   |   |   |   strokes > 285
|   |   |   |   |   |   |   hole_par <= 282
|   |   |   |   |   |   |   |   strokes <= 288
|   |   |   |   |   |   |   |   |   sg_total <= -0.19
|   |   |   |   |   |   |   |   |   |   strokes <= 287
|   |   |   |   |   |   |   |   |   |   |   sg_app <= 0.53: 6 (6.0)
|   |   |   |   |   |   |   |   |   |   |   sg_app > 0.53: 4 (2.0)
|   |   |   |   |   |   |   |   |   |   strokes > 287: 6 (13.0)
|   |   |   |   |   |   |   |   |   sg_total > -0.19
|   |   |   |   |   |   |   |   |   |   sg_arg <= 0.57
|   |   |   |   |   |   |   |   |   |   |   sg_total <= -0.18: 4 (9.0/1.0)
|   |   |   |   |   |   |   |   |   |   |   sg_total > -0.18: 6 (7.0/1.0)
|   |   |   |   |   |   |   |   |   |   sg_arg > 0.57: 5 (2.0)
|   |   |   |   |   |   |   |   strokes > 288
|   |   |   |   |   |   |   |   |   strokes <= 294
|   |   |   |   |   |   |   |   |   |   sg_putt <= 0.32: 6 (25.0)
|   |   |   |   |   |   |   |   |   |   sg_putt > 0.32
|   |   |   |   |   |   |   |   |   |   |   sg_app <= -0.47: 6 (3.0)
|   |   |   |   |   |   |   |   |   |   |   sg_app > -0.47: 5 (2.0)
|   |   |   |   |   |   |   |   |   strokes > 294
|   |   |   |   |   |   |   |   |   |   strokes <= 297: 5 (2.0)
|   |   |   |   |   |   |   |   |   |   strokes > 297: 6 (3.0)
|   |   |   |   |   |   |   hole_par > 282
|   |   |   |   |   |   |   |   sg_total <= 0.02: 6 (548.0/36.0)
|   |   |   |   |   |   |   |   sg_total > 0.02
|   |   |   |   |   |   |   |   |   strokes <= 292: 5 (6.0)
|   |   |   |   |   |   |   |   |   strokes > 292: 6 (12.0)
|   |   |   |   sg_total > 0.04
|   |   |   |   |   strokes <= 276
|   |   |   |   |   |   sg_total <= 0.19
|   |   |   |   |   |   |   strokes <= 271
|   |   |   |   |   |   |   |   sg_total <= 0.15
|   |   |   |   |   |   |   |   |   hole_par <= 215: 5 (2.0/1.0)
|   |   |   |   |   |   |   |   |   hole_par > 215: 4 (3.0/1.0)
|   |   |   |   |   |   |   |   sg_total > 0.15: 5 (6.0)
|   |   |   |   |   |   |   strokes > 271
|   |   |   |   |   |   |   |   hole_par <= 280
|   |   |   |   |   |   |   |   |   sg_total <= 0.05
|   |   |   |   |   |   |   |   |   |   strokes <= 275: 6 (5.0)
|   |   |   |   |   |   |   |   |   |   strokes > 275: 4 (3.0)
|   |   |   |   |   |   |   |   |   sg_total > 0.05: 6 (45.0/2.0)
|   |   |   |   |   |   |   |   hole_par > 280
|   |   |   |   |   |   |   |   |   strokes <= 274
|   |   |   |   |   |   |   |   |   |   sg_total <= 0.13
|   |   |   |   |   |   |   |   |   |   |   sg_ott <= 0.26: 3 (3.0)
|   |   |   |   |   |   |   |   |   |   |   sg_ott > 0.26: 4 (3.0)
|   |   |   |   |   |   |   |   |   |   sg_total > 0.13: 4 (11.0)
|   |   |   |   |   |   |   |   |   strokes > 274
|   |   |   |   |   |   |   |   |   |   sg_total <= 0.11
|   |   |   |   |   |   |   |   |   |   |   sg_arg <= -0.19: 5 (2.0)
|   |   |   |   |   |   |   |   |   |   |   sg_arg > -0.19
|   |   |   |   |   |   |   |   |   |   |   |   strokes <= 275: 4 (3.0/1.0)
|   |   |   |   |   |   |   |   |   |   |   |   strokes > 275: 6 (2.0)
|   |   |   |   |   |   |   |   |   |   sg_total > 0.11: 6 (17.0)
|   |   |   |   |   |   sg_total > 0.19: 3 (7.0/2.0)
|   |   |   |   |   strokes > 276
|   |   |   |   |   |   hole_par <= 282
|   |   |   |   |   |   |   strokes <= 283
|   |   |   |   |   |   |   |   strokes <= 278
|   |   |   |   |   |   |   |   |   sg_putt <= 1.34
|   |   |   |   |   |   |   |   |   |   sg_total <= 0.18
|   |   |   |   |   |   |   |   |   |   |   sg_total <= 0.05: 5 (3.0)
|   |   |   |   |   |   |   |   |   |   |   sg_total > 0.05
|   |   |   |   |   |   |   |   |   |   |   |   hole_par <= 280
|   |   |   |   |   |   |   |   |   |   |   |   |   strokes <= 277: 6 (4.0)
|   |   |   |   |   |   |   |   |   |   |   |   |   strokes > 277: 1 (5.0)
|   |   |   |   |   |   |   |   |   |   |   |   hole_par > 280: 6 (6.0/1.0)
|   |   |   |   |   |   |   |   |   |   sg_total > 0.18: 5 (13.0)
|   |   |   |   |   |   |   |   |   sg_putt > 1.34: 2 (2.0)
|   |   |   |   |   |   |   |   strokes > 278
|   |   |   |   |   |   |   |   |   sg_total <= 0.13
|   |   |   |   |   |   |   |   |   |   sg_total <= 0.11
|   |   |   |   |   |   |   |   |   |   |   strokes <= 282: 6 (11.0)
|   |   |   |   |   |   |   |   |   |   |   strokes > 282
|   |   |   |   |   |   |   |   |   |   |   |   sg_total <= 0.08: 5 (6.0/1.0)
|   |   |   |   |   |   |   |   |   |   |   |   sg_total > 0.08: 6 (2.0)
|   |   |   |   |   |   |   |   |   |   sg_total > 0.11
|   |   |   |   |   |   |   |   |   |   |   strokes <= 281
|   |   |   |   |   |   |   |   |   |   |   |   strokes <= 280: 5 (4.0)
|   |   |   |   |   |   |   |   |   |   |   |   strokes > 280: 2 (2.0)
|   |   |   |   |   |   |   |   |   |   |   strokes > 281
|   |   |   |   |   |   |   |   |   |   |   |   strokes <= 282: 6 (2.0)
|   |   |   |   |   |   |   |   |   |   |   |   strokes > 282: 5 (4.0)
|   |   |   |   |   |   |   |   |   sg_total > 0.13
|   |   |   |   |   |   |   |   |   |   sg_arg <= 0.82: 6 (30.0/1.0)
|   |   |   |   |   |   |   |   |   |   sg_arg > 0.82: 3 (2.0/1.0)
|   |   |   |   |   |   |   strokes > 283
|   |   |   |   |   |   |   |   sg_app <= 0.07: 6 (23.0)
|   |   |   |   |   |   |   |   sg_app > 0.07
|   |   |   |   |   |   |   |   |   strokes <= 288
|   |   |   |   |   |   |   |   |   |   strokes <= 286
|   |   |   |   |   |   |   |   |   |   |   strokes <= 285
|   |   |   |   |   |   |   |   |   |   |   |   sg_total <= 0.1: 6 (4.0)
|   |   |   |   |   |   |   |   |   |   |   |   sg_total > 0.1: 4 (3.0)
|   |   |   |   |   |   |   |   |   |   |   strokes > 285: 6 (6.0)
|   |   |   |   |   |   |   |   |   |   strokes > 286
|   |   |   |   |   |   |   |   |   |   |   sg_putt <= -0.84
|   |   |   |   |   |   |   |   |   |   |   |   sg_putt <= -1.01: 4 (2.0)
|   |   |   |   |   |   |   |   |   |   |   |   sg_putt > -1.01: 6 (2.0)
|   |   |   |   |   |   |   |   |   |   |   sg_putt > -0.84: 4 (5.0)
|   |   |   |   |   |   |   |   |   strokes > 288: 6 (3.0/1.0)
|   |   |   |   |   |   hole_par > 282
|   |   |   |   |   |   |   strokes <= 294
|   |   |   |   |   |   |   |   strokes <= 287
|   |   |   |   |   |   |   |   |   hole_par <= 284
|   |   |   |   |   |   |   |   |   |   sg_total <= 0.12
|   |   |   |   |   |   |   |   |   |   |   sg_total <= 0.05
|   |   |   |   |   |   |   |   |   |   |   |   strokes <= 281: 6 (5.0)
|   |   |   |   |   |   |   |   |   |   |   |   strokes > 281: 4 (7.0)
|   |   |   |   |   |   |   |   |   |   |   sg_total > 0.05
|   |   |   |   |   |   |   |   |   |   |   |   sg_total <= 0.1
|   |   |   |   |   |   |   |   |   |   |   |   |   strokes <= 285
|   |   |   |   |   |   |   |   |   |   |   |   |   |   strokes <= 282
|   |   |   |   |   |   |   |   |   |   |   |   |   |   |   strokes <= 280
|   |   |   |   |   |   |   |   |   |   |   |   |   |   |   |   strokes <= 279
|   |   |   |   |   |   |   |   |   |   |   |   |   |   |   |   |   sg_total <= 0.07
|   |   |   |   |   |   |   |   |   |   |   |   |   |   |   |   |   |   sg_putt <= -0.17: 6 (4.0)
|   |   |   |   |   |   |   |   |   |   |   |   |   |   |   |   |   |   sg_putt > -0.17: 5 (3.0)
|   |   |   |   |   |   |   |   |   |   |   |   |   |   |   |   |   sg_total > 0.07: 6 (8.0)
|   |   |   |   |   |   |   |   |   |   |   |   |   |   |   |   strokes > 279
|   |   |   |   |   |   |   |   |   |   |   |   |   |   |   |   |   sg_total <= 0.07: 6 (5.0)
|   |   |   |   |   |   |   |   |   |   |   |   |   |   |   |   |   sg_total > 0.07: 5 (10.0)
|   |   |   |   |   |   |   |   |   |   |   |   |   |   |   strokes > 280: 6 (8.0/1.0)
|   |   |   |   |   |   |   |   |   |   |   |   |   |   strokes > 282: 5 (19.0/1.0)
|   |   |   |   |   |   |   |   |   |   |   |   |   strokes > 285: 6 (13.0)
|   |   |   |   |   |   |   |   |   |   |   |   sg_total > 0.1
|   |   |   |   |   |   |   |   |   |   |   |   |   strokes <= 282: 6 (9.0)
|   |   |   |   |   |   |   |   |   |   |   |   |   strokes > 282
|   |   |   |   |   |   |   |   |   |   |   |   |   |   sg_total <= 0.11: 4 (3.0)
|   |   |   |   |   |   |   |   |   |   |   |   |   |   sg_total > 0.11: 6 (4.0)
|   |   |   |   |   |   |   |   |   |   sg_total > 0.12
|   |   |   |   |   |   |   |   |   |   |   sg_total <= 0.14: 5 (27.0)
|   |   |   |   |   |   |   |   |   |   |   sg_total > 0.14
|   |   |   |   |   |   |   |   |   |   |   |   sg_total <= 0.15: 6 (7.0)
|   |   |   |   |   |   |   |   |   |   |   |   sg_total > 0.15
|   |   |   |   |   |   |   |   |   |   |   |   |   strokes <= 277: 6 (5.0)
|   |   |   |   |   |   |   |   |   |   |   |   |   strokes > 277
|   |   |   |   |   |   |   |   |   |   |   |   |   |   sg_arg <= 0.5: 5 (38.0/1.0)
|   |   |   |   |   |   |   |   |   |   |   |   |   |   sg_arg > 0.5
|   |   |   |   |   |   |   |   |   |   |   |   |   |   |   sg_app <= -1.04: 5 (2.0)
|   |   |   |   |   |   |   |   |   |   |   |   |   |   |   sg_app > -1.04: 6 (9.0/2.0)
|   |   |   |   |   |   |   |   |   hole_par > 284
|   |   |   |   |   |   |   |   |   |   strokes <= 282
|   |   |   |   |   |   |   |   |   |   |   hole_par <= 287
|   |   |   |   |   |   |   |   |   |   |   |   sg_arg <= -0.06: 4 (3.0/1.0)
|   |   |   |   |   |   |   |   |   |   |   |   sg_arg > -0.06: 3 (3.0)
|   |   |   |   |   |   |   |   |   |   |   hole_par > 287
|   |   |   |   |   |   |   |   |   |   |   |   sg_total <= 0.16
|   |   |   |   |   |   |   |   |   |   |   |   |   sg_total <= 0.08
|   |   |   |   |   |   |   |   |   |   |   |   |   |   sg_total <= 0.06
|   |   |   |   |   |   |   |   |   |   |   |   |   |   |   strokes <= 280: 4 (2.0)
|   |   |   |   |   |   |   |   |   |   |   |   |   |   |   strokes > 280: 6 (4.0)
|   |   |   |   |   |   |   |   |   |   |   |   |   |   sg_total > 0.06
|   |   |   |   |   |   |   |   |   |   |   |   |   |   |   strokes <= 278: 6 (5.0)
|   |   |   |   |   |   |   |   |   |   |   |   |   |   |   strokes > 278
|   |   |   |   |   |   |   |   |   |   |   |   |   |   |   |   sg_total <= 0.07: 6 (4.0/1.0)
|   |   |   |   |   |   |   |   |   |   |   |   |   |   |   |   sg_total > 0.07: 5 (5.0)
|   |   |   |   |   |   |   |   |   |   |   |   |   sg_total > 0.08: 6 (26.0/1.0)
|   |   |   |   |   |   |   |   |   |   |   |   sg_total > 0.16
|   |   |   |   |   |   |   |   |   |   |   |   |   sg_total <= 0.18: 3 (5.0)
|   |   |   |   |   |   |   |   |   |   |   |   |   sg_total > 0.18
|   |   |   |   |   |   |   |   |   |   |   |   |   |   sg_putt <= -0.44: 6 (2.0)
|   |   |   |   |   |   |   |   |   |   |   |   |   |   sg_putt > -0.44: 4 (2.0)
|   |   |   |   |   |   |   |   |   |   strokes > 282
|   |   |   |   |   |   |   |   |   |   |   strokes <= 283
|   |   |   |   |   |   |   |   |   |   |   |   sg_total <= 0.08: 4 (7.0)
|   |   |   |   |   |   |   |   |   |   |   |   sg_total > 0.08
|   |   |   |   |   |   |   |   |   |   |   |   |   sg_total <= 0.16
|   |   |   |   |   |   |   |   |   |   |   |   |   |   sg_putt <= 0.23: 5 (3.0/1.0)
|   |   |   |   |   |   |   |   |   |   |   |   |   |   sg_putt > 0.23: 3 (2.0)
|   |   |   |   |   |   |   |   |   |   |   |   |   sg_total > 0.16: 5 (8.0/1.0)
|   |   |   |   |   |   |   |   |   |   |   strokes > 283
|   |   |   |   |   |   |   |   |   |   |   |   sg_total <= 0.1: 5 (24.0/3.0)
|   |   |   |   |   |   |   |   |   |   |   |   sg_total > 0.1
|   |   |   |   |   |   |   |   |   |   |   |   |   sg_total <= 0.17
|   |   |   |   |   |   |   |   |   |   |   |   |   |   hole_par <= 286: 6 (3.0)
|   |   |   |   |   |   |   |   |   |   |   |   |   |   hole_par > 286
|   |   |   |   |   |   |   |   |   |   |   |   |   |   |   sg_total <= 0.13: 6 (36.0/7.0)
|   |   |   |   |   |   |   |   |   |   |   |   |   |   |   sg_total > 0.13
|   |   |   |   |   |   |   |   |   |   |   |   |   |   |   |   sg_total <= 0.15: 5 (7.0/1.0)
|   |   |   |   |   |   |   |   |   |   |   |   |   |   |   |   sg_total > 0.15
|   |   |   |   |   |   |   |   |   |   |   |   |   |   |   |   |   strokes <= 286: 6 (6.0/1.0)
|   |   |   |   |   |   |   |   |   |   |   |   |   |   |   |   |   strokes > 286
|   |   |   |   |   |   |   |   |   |   |   |   |   |   |   |   |   |   sg_total <= 0.16: 6 (2.0)
|   |   |   |   |   |   |   |   |   |   |   |   |   |   |   |   |   |   sg_total > 0.16: 5 (4.0)
|   |   |   |   |   |   |   |   |   |   |   |   |   sg_total > 0.17
|   |   |   |   |   |   |   |   |   |   |   |   |   |   sg_total <= 0.19
|   |   |   |   |   |   |   |   |   |   |   |   |   |   |   sg_putt <= -0.44: 5 (4.0/1.0)
|   |   |   |   |   |   |   |   |   |   |   |   |   |   |   sg_putt > -0.44
|   |   |   |   |   |   |   |   |   |   |   |   |   |   |   |   sg_total <= 0.18
|   |   |   |   |   |   |   |   |   |   |   |   |   |   |   |   |   hole_par <= 286: 6 (2.0)
|   |   |   |   |   |   |   |   |   |   |   |   |   |   |   |   |   hole_par > 286: 4 (6.0/1.0)
|   |   |   |   |   |   |   |   |   |   |   |   |   |   |   |   sg_total > 0.18: 6 (3.0)
|   |   |   |   |   |   |   |   |   |   |   |   |   |   sg_total > 0.19: 3 (2.0)
|   |   |   |   |   |   |   |   strokes > 287
|   |   |   |   |   |   |   |   |   sg_total <= 0.07: 5 (23.0)
|   |   |   |   |   |   |   |   |   sg_total > 0.07: 6 (64.0/5.0)
|   |   |   |   |   |   |   strokes > 294
|   |   |   |   |   |   |   |   strokes <= 295: 4 (4.0)
|   |   |   |   |   |   |   |   strokes > 295: 5 (11.0)
|   |   hole_par > 288
|   |   |   sg_total <= -1.88
|   |   |   |   sg_t2g <= -1.17: 4 (17.0)
|   |   |   |   sg_t2g > -1.17
|   |   |   |   |   sg_ott <= 0.39: 5 (2.0)
|   |   |   |   |   sg_ott > 0.39: 4 (2.0)
|   |   |   sg_total > -1.88
|   |   |   |   sg_total <= -0.68
|   |   |   |   |   strokes <= 285
|   |   |   |   |   |   strokes <= 278: 3 (6.0)
|   |   |   |   |   |   strokes > 278: 4 (8.0)
|   |   |   |   |   strokes > 285: 3 (24.0)
|   |   |   |   sg_total > -0.68
|   |   |   |   |   strokes <= 281
|   |   |   |   |   |   strokes <= 273: 2 (2.0)
|   |   |   |   |   |   strokes > 273: 3 (14.0)
|   |   |   |   |   strokes > 281
|   |   |   |   |   |   strokes <= 290: 2 (14.0/1.0)
|   |   |   |   |   |   strokes > 290: 3 (2.0)
|   sg_total > 0.2
|   |   hole_par <= 288
|   |   |   sg_total <= 0.59
|   |   |   |   sg_total <= 0.45
|   |   |   |   |   strokes <= 286
|   |   |   |   |   |   strokes <= 273
|   |   |   |   |   |   |   hole_par <= 280
|   |   |   |   |   |   |   |   strokes <= 270
|   |   |   |   |   |   |   |   |   sg_total <= 0.36: 5 (18.0)
|   |   |   |   |   |   |   |   |   sg_total > 0.36: 3 (4.0)
|   |   |   |   |   |   |   |   strokes > 270: 5 (36.0)
|   |   |   |   |   |   |   hole_par > 280
|   |   |   |   |   |   |   |   sg_app <= -0.43: 2 (2.0/1.0)
|   |   |   |   |   |   |   |   sg_app > -0.43
|   |   |   |   |   |   |   |   |   hole_par <= 285
|   |   |   |   |   |   |   |   |   |   sg_app <= 0.76: 3 (4.0)
|   |   |   |   |   |   |   |   |   |   sg_app > 0.76: 4 (2.0)
|   |   |   |   |   |   |   |   |   hole_par > 285: 4 (5.0)
|   |   |   |   |   |   strokes > 273
|   |   |   |   |   |   |   strokes <= 274
|   |   |   |   |   |   |   |   hole_par <= 285
|   |   |   |   |   |   |   |   |   sg_total <= 0.28: 6 (19.0)
|   |   |   |   |   |   |   |   |   sg_total > 0.28
|   |   |   |   |   |   |   |   |   |   sg_total <= 0.32
|   |   |   |   |   |   |   |   |   |   |   sg_total <= 0.3: 5 (4.0)
|   |   |   |   |   |   |   |   |   |   |   sg_total > 0.3
|   |   |   |   |   |   |   |   |   |   |   |   sg_putt <= -0.04: 1 (2.0/1.0)
|   |   |   |   |   |   |   |   |   |   |   |   sg_putt > -0.04: 6 (5.0/1.0)
|   |   |   |   |   |   |   |   |   |   sg_total > 0.32: 5 (13.0/2.0)
|   |   |   |   |   |   |   |   hole_par > 285: 3 (2.0/1.0)
|   |   |   |   |   |   |   strokes > 274
|   |   |   |   |   |   |   |   hole_par <= 280
|   |   |   |   |   |   |   |   |   sg_total <= 0.37
|   |   |   |   |   |   |   |   |   |   strokes <= 283
|   |   |   |   |   |   |   |   |   |   |   strokes <= 277
|   |   |   |   |   |   |   |   |   |   |   |   sg_total <= 0.3
|   |   |   |   |   |   |   |   |   |   |   |   |   sg_total <= 0.27: 3 (12.0)
|   |   |   |   |   |   |   |   |   |   |   |   |   sg_total > 0.27
|   |   |   |   |   |   |   |   |   |   |   |   |   |   strokes <= 276: 3 (5.0)
|   |   |   |   |   |   |   |   |   |   |   |   |   |   strokes > 276: 4 (9.0)
|   |   |   |   |   |   |   |   |   |   |   |   sg_total > 0.3
|   |   |   |   |   |   |   |   |   |   |   |   |   strokes <= 276: 6 (6.0)
|   |   |   |   |   |   |   |   |   |   |   |   |   strokes > 276: 2 (3.0)
|   |   |   |   |   |   |   |   |   |   |   strokes > 277
|   |   |   |   |   |   |   |   |   |   |   |   strokes <= 281
|   |   |   |   |   |   |   |   |   |   |   |   |   sg_total <= 0.23: 5 (6.0)
|   |   |   |   |   |   |   |   |   |   |   |   |   sg_total > 0.23
|   |   |   |   |   |   |   |   |   |   |   |   |   |   sg_total <= 0.34
|   |   |   |   |   |   |   |   |   |   |   |   |   |   |   strokes <= 280: 6 (14.0)
|   |   |   |   |   |   |   |   |   |   |   |   |   |   |   strokes > 280
|   |   |   |   |   |   |   |   |   |   |   |   |   |   |   |   sg_total <= 0.26: 4 (3.0)
|   |   |   |   |   |   |   |   |   |   |   |   |   |   |   |   sg_total > 0.26: 6 (7.0)
|   |   |   |   |   |   |   |   |   |   |   |   |   |   sg_total > 0.34
|   |   |   |   |   |   |   |   |   |   |   |   |   |   |   sg_total <= 0.36: 5 (5.0/1.0)
|   |   |   |   |   |   |   |   |   |   |   |   |   |   |   sg_total > 0.36
|   |   |   |   |   |   |   |   |   |   |   |   |   |   |   |   strokes <= 280: 2 (2.0)
|   |   |   |   |   |   |   |   |   |   |   |   |   |   |   |   strokes > 280: 6 (2.0)
|   |   |   |   |   |   |   |   |   |   |   |   strokes > 281
|   |   |   |   |   |   |   |   |   |   |   |   |   sg_total <= 0.36
|   |   |   |   |   |   |   |   |   |   |   |   |   |   sg_total <= 0.33
|   |   |   |   |   |   |   |   |   |   |   |   |   |   |   strokes <= 282
|   |   |   |   |   |   |   |   |   |   |   |   |   |   |   |   sg_total <= 0.32: 6 (4.0)
|   |   |   |   |   |   |   |   |   |   |   |   |   |   |   |   sg_total > 0.32: 4 (8.0)
|   |   |   |   |   |   |   |   |   |   |   |   |   |   |   strokes > 282: 4 (7.0)
|   |   |   |   |   |   |   |   |   |   |   |   |   |   sg_total > 0.33
|   |   |   |   |   |   |   |   |   |   |   |   |   |   |   strokes <= 282: 5 (2.0)
|   |   |   |   |   |   |   |   |   |   |   |   |   |   |   strokes > 282: 6 (5.0)
|   |   |   |   |   |   |   |   |   |   |   |   |   sg_total > 0.36: 4 (8.0)
|   |   |   |   |   |   |   |   |   |   strokes > 283
|   |   |   |   |   |   |   |   |   |   |   strokes <= 285: 5 (14.0)
|   |   |   |   |   |   |   |   |   |   |   strokes > 285
|   |   |   |   |   |   |   |   |   |   |   |   sg_t2g <= 0.69
|   |   |   |   |   |   |   |   |   |   |   |   |   sg_app <= -0.38: 5 (3.0)
|   |   |   |   |   |   |   |   |   |   |   |   |   sg_app > -0.38: 3 (9.0/1.0)
|   |   |   |   |   |   |   |   |   |   |   |   sg_t2g > 0.69: 5 (5.0)
|   |   |   |   |   |   |   |   |   sg_total > 0.37
|   |   |   |   |   |   |   |   |   |   strokes <= 279: 5 (61.0/3.0)
|   |   |   |   |   |   |   |   |   |   strokes > 279
|   |   |   |   |   |   |   |   |   |   |   sg_total <= 0.38: 2 (2.0)
|   |   |   |   |   |   |   |   |   |   |   sg_total > 0.38
|   |   |   |   |   |   |   |   |   |   |   |   strokes <= 283
|   |   |   |   |   |   |   |   |   |   |   |   |   strokes <= 281
|   |   |   |   |   |   |   |   |   |   |   |   |   |   sg_total <= 0.4: 6 (6.0)
|   |   |   |   |   |   |   |   |   |   |   |   |   |   sg_total > 0.4
|   |   |   |   |   |   |   |   |   |   |   |   |   |   |   sg_putt <= -0.76: 6 (2.0)
|   |   |   |   |   |   |   |   |   |   |   |   |   |   |   sg_putt > -0.76: 5 (10.0/1.0)
|   |   |   |   |   |   |   |   |   |   |   |   |   strokes > 281: 6 (8.0)
|   |   |   |   |   |   |   |   |   |   |   |   strokes > 283
|   |   |   |   |   |   |   |   |   |   |   |   |   strokes <= 284: 3 (6.0)
|   |   |   |   |   |   |   |   |   |   |   |   |   strokes > 284: 6 (2.0)
|   |   |   |   |   |   |   |   hole_par > 280
|   |   |   |   |   |   |   |   |   sg_total <= 0.22
|   |   |   |   |   |   |   |   |   |   strokes <= 275: 3 (2.0/1.0)
|   |   |   |   |   |   |   |   |   |   strokes > 275
|   |   |   |   |   |   |   |   |   |   |   sg_total <= 0.21: 5 (18.0/1.0)
|   |   |   |   |   |   |   |   |   |   |   sg_total > 0.21
|   |   |   |   |   |   |   |   |   |   |   |   hole_par <= 286
|   |   |   |   |   |   |   |   |   |   |   |   |   strokes <= 284
|   |   |   |   |   |   |   |   |   |   |   |   |   |   strokes <= 279: 6 (8.0/1.0)
|   |   |   |   |   |   |   |   |   |   |   |   |   |   strokes > 279: 5 (6.0/1.0)
|   |   |   |   |   |   |   |   |   |   |   |   |   strokes > 284: 6 (6.0)
|   |   |   |   |   |   |   |   |   |   |   |   hole_par > 286
|   |   |   |   |   |   |   |   |   |   |   |   |   strokes <= 283: 5 (3.0/1.0)
|   |   |   |   |   |   |   |   |   |   |   |   |   strokes > 283: 6 (2.0)
|   |   |   |   |   |   |   |   |   sg_total > 0.22
|   |   |   |   |   |   |   |   |   |   strokes <= 283
|   |   |   |   |   |   |   |   |   |   |   strokes <= 279
|   |   |   |   |   |   |   |   |   |   |   |   sg_total <= 0.31
|   |   |   |   |   |   |   |   |   |   |   |   |   sg_total <= 0.26
|   |   |   |   |   |   |   |   |   |   |   |   |   |   sg_total <= 0.24
|   |   |   |   |   |   |   |   |   |   |   |   |   |   |   strokes <= 277: 4 (9.0/1.0)
|   |   |   |   |   |   |   |   |   |   |   |   |   |   |   strokes > 277: 6 (2.0)
|   |   |   |   |   |   |   |   |   |   |   |   |   |   sg_total > 0.24
|   |   |   |   |   |   |   |   |   |   |   |   |   |   |   sg_total <= 0.25
|   |   |   |   |   |   |   |   |   |   |   |   |   |   |   |   strokes <= 276
|   |   |   |   |   |   |   |   |   |   |   |   |   |   |   |   |   strokes <= 275: 5 (3.0)
|   |   |   |   |   |   |   |   |   |   |   |   |   |   |   |   |   strokes > 275: 6 (2.0)
|   |   |   |   |   |   |   |   |   |   |   |   |   |   |   |   strokes > 276: 5 (11.0)
|   |   |   |   |   |   |   |   |   |   |   |   |   |   |   sg_total > 0.25: 4 (6.0)
|   |   |   |   |   |   |   |   |   |   |   |   |   sg_total > 0.26
|   |   |   |   |   |   |   |   |   |   |   |   |   |   sg_total <= 0.28: 6 (16.0)
|   |   |   |   |   |   |   |   |   |   |   |   |   |   sg_total > 0.28
|   |   |   |   |   |   |   |   |   |   |   |   |   |   |   sg_arg <= 0.7
|   |   |   |   |   |   |   |   |   |   |   |   |   |   |   |   sg_putt <= -0.36: 6 (5.0/2.0)
|   |   |   |   |   |   |   |   |   |   |   |   |   |   |   |   sg_putt > -0.36
|   |   |   |   |   |   |   |   |   |   |   |   |   |   |   |   |   sg_arg <= -0.1
|   |   |   |   |   |   |   |   |   |   |   |   |   |   |   |   |   |   sg_putt <= -0.07: 5 (3.0)
|   |   |   |   |   |   |   |   |   |   |   |   |   |   |   |   |   |   sg_putt > -0.07: 6 (5.0/1.0)
|   |   |   |   |   |   |   |   |   |   |   |   |   |   |   |   |   sg_arg > -0.1: 5 (10.0)
|   |   |   |   |   |   |   |   |   |   |   |   |   |   |   sg_arg > 0.7: 6 (3.0)
|   |   |   |   |   |   |   |   |   |   |   |   sg_total > 0.31
|   |   |   |   |   |   |   |   |   |   |   |   |   sg_total <= 0.35
|   |   |   |   |   |   |   |   |   |   |   |   |   |   sg_t2g <= -0.62
|   |   |   |   |   |   |   |   |   |   |   |   |   |   |   strokes <= 277: 5 (2.0)
|   |   |   |   |   |   |   |   |   |   |   |   |   |   |   strokes > 277: 4 (7.0)
|   |   |   |   |   |   |   |   |   |   |   |   |   |   sg_t2g > -0.62
|   |   |   |   |   |   |   |   |   |   |   |   |   |   |   sg_total <= 0.34
|   |   |   |   |   |   |   |   |   |   |   |   |   |   |   |   sg_arg <= -0.47
|   |   |   |   |   |   |   |   |   |   |   |   |   |   |   |   |   hole_par <= 286: 5 (2.0)
|   |   |   |   |   |   |   |   |   |   |   |   |   |   |   |   |   hole_par > 286: 4 (2.0)
|   |   |   |   |   |   |   |   |   |   |   |   |   |   |   |   sg_arg > -0.47: 5 (36.0)
|   |   |   |   |   |   |   |   |   |   |   |   |   |   |   sg_total > 0.34
|   |   |   |   |   |   |   |   |   |   |   |   |   |   |   |   strokes <= 277: 5 (7.0)
|   |   |   |   |   |   |   |   |   |   |   |   |   |   |   |   strokes > 277: 4 (4.0)
|   |   |   |   |   |   |   |   |   |   |   |   |   sg_total > 0.35
|   |   |   |   |   |   |   |   |   |   |   |   |   |   hole_par <= 286
|   |   |   |   |   |   |   |   |   |   |   |   |   |   |   strokes <= 278
|   |   |   |   |   |   |   |   |   |   |   |   |   |   |   |   hole_par <= 282
|   |   |   |   |   |   |   |   |   |   |   |   |   |   |   |   |   sg_total <= 0.4: 5 (3.0)
|   |   |   |   |   |   |   |   |   |   |   |   |   |   |   |   |   sg_total > 0.4
|   |   |   |   |   |   |   |   |   |   |   |   |   |   |   |   |   |   strokes <= 276: 4 (7.0/1.0)
|   |   |   |   |   |   |   |   |   |   |   |   |   |   |   |   |   |   strokes > 276: 5 (2.0/1.0)
|   |   |   |   |   |   |   |   |   |   |   |   |   |   |   |   hole_par > 282
|   |   |   |   |   |   |   |   |   |   |   |   |   |   |   |   |   sg_total <= 0.37: 6 (3.0)
|   |   |   |   |   |   |   |   |   |   |   |   |   |   |   |   |   sg_total > 0.37
|   |   |   |   |   |   |   |   |   |   |   |   |   |   |   |   |   |   strokes <= 275
|   |   |   |   |   |   |   |   |   |   |   |   |   |   |   |   |   |   |   sg_total <= 0.41: 6 (2.0)
|   |   |   |   |   |   |   |   |   |   |   |   |   |   |   |   |   |   |   sg_total > 0.41: 5 (5.0)
|   |   |   |   |   |   |   |   |   |   |   |   |   |   |   |   |   |   strokes > 275: 5 (25.0)
|   |   |   |   |   |   |   |   |   |   |   |   |   |   |   strokes > 278: 6 (6.0)
|   |   |   |   |   |   |   |   |   |   |   |   |   |   hole_par > 286
|   |   |   |   |   |   |   |   |   |   |   |   |   |   |   sg_total <= 0.41
|   |   |   |   |   |   |   |   |   |   |   |   |   |   |   |   sg_putt <= 0.64
|   |   |   |   |   |   |   |   |   |   |   |   |   |   |   |   |   sg_total <= 0.38: 4 (2.0/1.0)
|   |   |   |   |   |   |   |   |   |   |   |   |   |   |   |   |   sg_total > 0.38: 5 (9.0/1.0)
|   |   |   |   |   |   |   |   |   |   |   |   |   |   |   |   sg_putt > 0.64: 3 (2.0)
|   |   |   |   |   |   |   |   |   |   |   |   |   |   |   sg_total > 0.41: 3 (7.0)
|   |   |   |   |   |   |   |   |   |   |   strokes > 279
|   |   |   |   |   |   |   |   |   |   |   |   hole_par <= 287
|   |   |   |   |   |   |   |   |   |   |   |   |   sg_total <= 0.38
|   |   |   |   |   |   |   |   |   |   |   |   |   |   strokes <= 281
|   |   |   |   |   |   |   |   |   |   |   |   |   |   |   hole_par <= 285
|   |   |   |   |   |   |   |   |   |   |   |   |   |   |   |   strokes <= 280
|   |   |   |   |   |   |   |   |   |   |   |   |   |   |   |   |   sg_total <= 0.34: 5 (36.0)
|   |   |   |   |   |   |   |   |   |   |   |   |   |   |   |   |   sg_total > 0.34
|   |   |   |   |   |   |   |   |   |   |   |   |   |   |   |   |   |   sg_total <= 0.35: 3 (2.0)
|   |   |   |   |   |   |   |   |   |   |   |   |   |   |   |   |   |   sg_total > 0.35: 5 (7.0)
|   |   |   |   |   |   |   |   |   |   |   |   |   |   |   |   strokes > 280
|   |   |   |   |   |   |   |   |   |   |   |   |   |   |   |   |   sg_total <= 0.25: 3 (8.0)
|   |   |   |   |   |   |   |   |   |   |   |   |   |   |   |   |   sg_total > 0.25: 5 (11.0)
|   |   |   |   |   |   |   |   |   |   |   |   |   |   |   hole_par > 285: 3 (3.0/1.0)
|   |   |   |   |   |   |   |   |   |   |   |   |   |   strokes > 281
|   |   |   |   |   |   |   |   |   |   |   |   |   |   |   sg_total <= 0.23: 5 (6.0)
|   |   |   |   |   |   |   |   |   |   |   |   |   |   |   sg_total > 0.23
|   |   |   |   |   |   |   |   |   |   |   |   |   |   |   |   strokes <= 282
|   |   |   |   |   |   |   |   |   |   |   |   |   |   |   |   |   sg_total <= 0.27: 4 (6.0)
|   |   |   |   |   |   |   |   |   |   |   |   |   |   |   |   |   sg_total > 0.27
|   |   |   |   |   |   |   |   |   |   |   |   |   |   |   |   |   |   sg_total <= 0.35: 5 (8.0)
|   |   |   |   |   |   |   |   |   |   |   |   |   |   |   |   |   |   sg_total > 0.35
|   |   |   |   |   |   |   |   |   |   |   |   |   |   |   |   |   |   |   sg_total <= 0.36: 4 (3.0)
|   |   |   |   |   |   |   |   |   |   |   |   |   |   |   |   |   |   |   sg_total > 0.36: 5 (6.0)
|   |   |   |   |   |   |   |   |   |   |   |   |   |   |   |   strokes > 282: 4 (6.0)
|   |   |   |   |   |   |   |   |   |   |   |   |   sg_total > 0.38
|   |   |   |   |   |   |   |   |   |   |   |   |   |   strokes <= 282
|   |   |   |   |   |   |   |   |   |   |   |   |   |   |   sg_total <= 0.39: 4 (16.0)
|   |   |   |   |   |   |   |   |   |   |   |   |   |   |   sg_total > 0.39
|   |   |   |   |   |   |   |   |   |   |   |   |   |   |   |   strokes <= 280: 5 (5.0)
|   |   |   |   |   |   |   |   |   |   |   |   |   |   |   |   strokes > 280: 4 (11.0/1.0)
|   |   |   |   |   |   |   |   |   |   |   |   |   |   strokes > 282
|   |   |   |   |   |   |   |   |   |   |   |   |   |   |   hole_par <= 286: 5 (4.0)
|   |   |   |   |   |   |   |   |   |   |   |   |   |   |   hole_par > 286: 4 (2.0/1.0)
|   |   |   |   |   |   |   |   |   |   |   |   hole_par > 287
|   |   |   |   |   |   |   |   |   |   |   |   |   strokes <= 281
|   |   |   |   |   |   |   |   |   |   |   |   |   |   strokes <= 280: 5 (28.0/3.0)
|   |   |   |   |   |   |   |   |   |   |   |   |   |   strokes > 280
|   |   |   |   |   |   |   |   |   |   |   |   |   |   |   sg_total <= 0.42: 6 (6.0)
|   |   |   |   |   |   |   |   |   |   |   |   |   |   |   sg_total > 0.42: 5 (4.0)
|   |   |   |   |   |   |   |   |   |   |   |   |   strokes > 281
|   |   |   |   |   |   |   |   |   |   |   |   |   |   strokes <= 282
|   |   |   |   |   |   |   |   |   |   |   |   |   |   |   sg_total <= 0.31: 5 (7.0)
|   |   |   |   |   |   |   |   |   |   |   |   |   |   |   sg_total > 0.31
|   |   |   |   |   |   |   |   |   |   |   |   |   |   |   |   sg_total <= 0.42: 3 (10.0)
|   |   |   |   |   |   |   |   |   |   |   |   |   |   |   |   sg_total > 0.42: 5 (5.0)
|   |   |   |   |   |   |   |   |   |   |   |   |   |   strokes > 282: 5 (44.0/2.0)
|   |   |   |   |   |   |   |   |   |   strokes > 283
|   |   |   |   |   |   |   |   |   |   |   sg_total <= 0.25: 5 (22.0/1.0)
|   |   |   |   |   |   |   |   |   |   |   sg_total > 0.25
|   |   |   |   |   |   |   |   |   |   |   |   sg_total <= 0.4
|   |   |   |   |   |   |   |   |   |   |   |   |   sg_total <= 0.38
|   |   |   |   |   |   |   |   |   |   |   |   |   |   strokes <= 285
|   |   |   |   |   |   |   |   |   |   |   |   |   |   |   sg_total <= 0.33
|   |   |   |   |   |   |   |   |   |   |   |   |   |   |   |   strokes <= 284
|   |   |   |   |   |   |   |   |   |   |   |   |   |   |   |   |   sg_total <= 0.3
|   |   |   |   |   |   |   |   |   |   |   |   |   |   |   |   |   |   hole_par <= 285: 5 (2.0)
|   |   |   |   |   |   |   |   |   |   |   |   |   |   |   |   |   |   hole_par > 285: 6 (9.0)
|   |   |   |   |   |   |   |   |   |   |   |   |   |   |   |   |   sg_total > 0.3
|   |   |   |   |   |   |   |   |   |   |   |   |   |   |   |   |   |   hole_par <= 286: 6 (4.0)
|   |   |   |   |   |   |   |   |   |   |   |   |   |   |   |   |   |   hole_par > 286: 4 (4.0)
|   |   |   |   |   |   |   |   |   |   |   |   |   |   |   |   strokes > 284: 5 (5.0/1.0)
|   |   |   |   |   |   |   |   |   |   |   |   |   |   |   sg_total > 0.33
|   |   |   |   |   |   |   |   |   |   |   |   |   |   |   |   hole_par <= 286
|   |   |   |   |   |   |   |   |   |   |   |   |   |   |   |   |   strokes <= 284: 4 (5.0)
|   |   |   |   |   |   |   |   |   |   |   |   |   |   |   |   |   strokes > 284: 5 (4.0)
|   |   |   |   |   |   |   |   |   |   |   |   |   |   |   |   hole_par > 286
|   |   |   |   |   |   |   |   |   |   |   |   |   |   |   |   |   strokes <= 284: 5 (19.0)
|   |   |   |   |   |   |   |   |   |   |   |   |   |   |   |   |   strokes > 284
|   |   |   |   |   |   |   |   |   |   |   |   |   |   |   |   |   |   sg_total <= 0.37: 4 (2.0)
|   |   |   |   |   |   |   |   |   |   |   |   |   |   |   |   |   |   sg_total > 0.37: 5 (4.0)
|   |   |   |   |   |   |   |   |   |   |   |   |   |   strokes > 285: 6 (7.0)
|   |   |   |   |   |   |   |   |   |   |   |   |   sg_total > 0.38: 4 (9.0)
|   |   |   |   |   |   |   |   |   |   |   |   sg_total > 0.4
|   |   |   |   |   |   |   |   |   |   |   |   |   hole_par <= 287
|   |   |   |   |   |   |   |   |   |   |   |   |   |   sg_total <= 0.41: 5 (4.0)
|   |   |   |   |   |   |   |   |   |   |   |   |   |   sg_total > 0.41: 6 (9.0/1.0)
|   |   |   |   |   |   |   |   |   |   |   |   |   hole_par > 287: 5 (22.0)
|   |   |   |   |   strokes > 286
|   |   |   |   |   |   sg_total <= 0.23
|   |   |   |   |   |   |   sg_total <= 0.21: 2 (2.0/1.0)
|   |   |   |   |   |   |   sg_total > 0.21: 6 (15.0)
|   |   |   |   |   |   sg_total > 0.23
|   |   |   |   |   |   |   hole_par <= 287
|   |   |   |   |   |   |   |   sg_total <= 0.32: 5 (18.0/1.0)
|   |   |   |   |   |   |   |   sg_total > 0.32
|   |   |   |   |   |   |   |   |   sg_total <= 0.39: 6 (14.0)
|   |   |   |   |   |   |   |   |   sg_total > 0.39
|   |   |   |   |   |   |   |   |   |   strokes <= 287: 6 (3.0)
|   |   |   |   |   |   |   |   |   |   strokes > 287: 5 (14.0)
|   |   |   |   |   |   |   hole_par > 287
|   |   |   |   |   |   |   |   sg_total <= 0.26
|   |   |   |   |   |   |   |   |   sg_total <= 0.24: 5 (10.0)
|   |   |   |   |   |   |   |   |   sg_total > 0.24: 6 (9.0)
|   |   |   |   |   |   |   |   sg_total > 0.26
|   |   |   |   |   |   |   |   |   strokes <= 289
|   |   |   |   |   |   |   |   |   |   strokes <= 287
|   |   |   |   |   |   |   |   |   |   |   sg_total <= 0.35
|   |   |   |   |   |   |   |   |   |   |   |   sg_total <= 0.32: 5 (7.0)
|   |   |   |   |   |   |   |   |   |   |   |   sg_total > 0.32: 6 (5.0/1.0)
|   |   |   |   |   |   |   |   |   |   |   sg_total > 0.35: 5 (32.0/1.0)
|   |   |   |   |   |   |   |   |   |   strokes > 287
|   |   |   |   |   |   |   |   |   |   |   sg_total <= 0.35: 5 (9.0/2.0)
|   |   |   |   |   |   |   |   |   |   |   sg_total > 0.35
|   |   |   |   |   |   |   |   |   |   |   |   sg_total <= 0.43: 6 (9.0)
|   |   |   |   |   |   |   |   |   |   |   |   sg_total > 0.43: 5 (3.0)
|   |   |   |   |   |   |   |   |   strokes > 289
|   |   |   |   |   |   |   |   |   |   sg_total <= 0.3: 5 (30.0)
|   |   |   |   |   |   |   |   |   |   sg_total > 0.3
|   |   |   |   |   |   |   |   |   |   |   sg_total <= 0.37
|   |   |   |   |   |   |   |   |   |   |   |   strokes <= 291: 5 (10.0)
|   |   |   |   |   |   |   |   |   |   |   |   strokes > 291: 4 (5.0)
|   |   |   |   |   |   |   |   |   |   |   sg_total > 0.37: 5 (14.0)
|   |   |   |   sg_total > 0.45
|   |   |   |   |   strokes <= 286
|   |   |   |   |   |   strokes <= 283
|   |   |   |   |   |   |   strokes <= 273
|   |   |   |   |   |   |   |   hole_par <= 280: 5 (57.0/2.0)
|   |   |   |   |   |   |   |   hole_par > 280
|   |   |   |   |   |   |   |   |   sg_total <= 0.53
|   |   |   |   |   |   |   |   |   |   hole_par <= 286
|   |   |   |   |   |   |   |   |   |   |   strokes <= 271
|   |   |   |   |   |   |   |   |   |   |   |   strokes <= 270: 3 (2.0)
|   |   |   |   |   |   |   |   |   |   |   |   strokes > 270: 4 (4.0)
|   |   |   |   |   |   |   |   |   |   |   strokes > 271
|   |   |   |   |   |   |   |   |   |   |   |   hole_par <= 282: 3 (2.0/1.0)
|   |   |   |   |   |   |   |   |   |   |   |   hole_par > 282
|   |   |   |   |   |   |   |   |   |   |   |   |   hole_par <= 285: 5 (15.0)
|   |   |   |   |   |   |   |   |   |   |   |   |   hole_par > 285: 4 (3.0/1.0)
|   |   |   |   |   |   |   |   |   |   hole_par > 286: 1 (2.0/1.0)
|   |   |   |   |   |   |   |   |   sg_total > 0.53: 2 (5.0/1.0)
|   |   |   |   |   |   |   strokes > 273
|   |   |   |   |   |   |   |   hole_par <= 285
|   |   |   |   |   |   |   |   |   strokes <= 278
|   |   |   |   |   |   |   |   |   |   hole_par <= 280
|   |   |   |   |   |   |   |   |   |   |   strokes <= 277
|   |   |   |   |   |   |   |   |   |   |   |   strokes <= 276
|   |   |   |   |   |   |   |   |   |   |   |   |   sg_total <= 0.55: 3 (11.0)
|   |   |   |   |   |   |   |   |   |   |   |   |   sg_total > 0.55: 5 (5.0)
|   |   |   |   |   |   |   |   |   |   |   |   strokes > 276: 5 (10.0)
|   |   |   |   |   |   |   |   |   |   |   strokes > 277: 6 (5.0/1.0)
|   |   |   |   |   |   |   |   |   |   hole_par > 280
|   |   |   |   |   |   |   |   |   |   |   strokes <= 275
|   |   |   |   |   |   |   |   |   |   |   |   hole_par <= 282: 4 (5.0)
|   |   |   |   |   |   |   |   |   |   |   |   hole_par > 282
|   |   |   |   |   |   |   |   |   |   |   |   |   strokes <= 274: 4 (4.0)
|   |   |   |   |   |   |   |   |   |   |   |   |   strokes > 274
|   |   |   |   |   |   |   |   |   |   |   |   |   |   sg_total <= 0.53
|   |   |   |   |   |   |   |   |   |   |   |   |   |   |   sg_total <= 0.48: 5 (10.0)
|   |   |   |   |   |   |   |   |   |   |   |   |   |   |   sg_total > 0.48: 6 (3.0)
|   |   |   |   |   |   |   |   |   |   |   |   |   |   sg_total > 0.53
|   |   |   |   |   |   |   |   |   |   |   |   |   |   |   sg_arg <= 0.03: 5 (9.0/1.0)
|   |   |   |   |   |   |   |   |   |   |   |   |   |   |   sg_arg > 0.03
|   |   |   |   |   |   |   |   |   |   |   |   |   |   |   |   sg_ott <= 0.46: 4 (5.0)
|   |   |   |   |   |   |   |   |   |   |   |   |   |   |   |   sg_ott > 0.46: 5 (2.0)
|   |   |   |   |   |   |   |   |   |   |   strokes > 275
|   |   |   |   |   |   |   |   |   |   |   |   sg_total <= 0.49
|   |   |   |   |   |   |   |   |   |   |   |   |   strokes <= 276: 3 (5.0/1.0)
|   |   |   |   |   |   |   |   |   |   |   |   |   strokes > 276: 5 (6.0)
|   |   |   |   |   |   |   |   |   |   |   |   sg_total > 0.49: 5 (35.0/2.0)
|   |   |   |   |   |   |   |   |   strokes > 278
|   |   |   |   |   |   |   |   |   |   strokes <= 279
|   |   |   |   |   |   |   |   |   |   |   sg_total <= 0.47: 5 (7.0)
|   |   |   |   |   |   |   |   |   |   |   sg_total > 0.47
|   |   |   |   |   |   |   |   |   |   |   |   sg_total <= 0.51: 4 (17.0)
|   |   |   |   |   |   |   |   |   |   |   |   sg_total > 0.51
|   |   |   |   |   |   |   |   |   |   |   |   |   sg_total <= 0.53: 5 (6.0)
|   |   |   |   |   |   |   |   |   |   |   |   |   sg_total > 0.53: 4 (11.0)
|   |   |   |   |   |   |   |   |   |   strokes > 279
|   |   |   |   |   |   |   |   |   |   |   hole_par <= 282
|   |   |   |   |   |   |   |   |   |   |   |   sg_total <= 0.51: 4 (10.0)
|   |   |   |   |   |   |   |   |   |   |   |   sg_total > 0.51
|   |   |   |   |   |   |   |   |   |   |   |   |   sg_total <= 0.57
|   |   |   |   |   |   |   |   |   |   |   |   |   |   sg_total <= 0.55: 5 (14.0)
|   |   |   |   |   |   |   |   |   |   |   |   |   |   sg_total > 0.55: 6 (3.0)
|   |   |   |   |   |   |   |   |   |   |   |   |   sg_total > 0.57
|   |   |   |   |   |   |   |   |   |   |   |   |   |   sg_total <= 0.58: 4 (8.0)
|   |   |   |   |   |   |   |   |   |   |   |   |   |   sg_total > 0.58: 5 (7.0)
|   |   |   |   |   |   |   |   |   |   |   hole_par > 282
|   |   |   |   |   |   |   |   |   |   |   |   sg_total <= 0.56
|   |   |   |   |   |   |   |   |   |   |   |   |   sg_total <= 0.48: 5 (7.0)
|   |   |   |   |   |   |   |   |   |   |   |   |   sg_total > 0.48
|   |   |   |   |   |   |   |   |   |   |   |   |   |   sg_total <= 0.5
|   |   |   |   |   |   |   |   |   |   |   |   |   |   |   sg_total <= 0.49: 4 (6.0)
|   |   |   |   |   |   |   |   |   |   |   |   |   |   |   sg_total > 0.49: 3 (8.0)
|   |   |   |   |   |   |   |   |   |   |   |   |   |   sg_total > 0.5
|   |   |   |   |   |   |   |   |   |   |   |   |   |   |   sg_total <= 0.54
|   |   |   |   |   |   |   |   |   |   |   |   |   |   |   |   sg_total <= 0.52: 5 (6.0)
|   |   |   |   |   |   |   |   |   |   |   |   |   |   |   |   sg_total > 0.52
|   |   |   |   |   |   |   |   |   |   |   |   |   |   |   |   |   strokes <= 281: 4 (6.0)
|   |   |   |   |   |   |   |   |   |   |   |   |   |   |   |   |   strokes > 281: 5 (5.0)
|   |   |   |   |   |   |   |   |   |   |   |   |   |   |   sg_total > 0.54: 3 (3.0)
|   |   |   |   |   |   |   |   |   |   |   |   sg_total > 0.56: 5 (9.0)
|   |   |   |   |   |   |   |   hole_par > 285
|   |   |   |   |   |   |   |   |   hole_par <= 287
|   |   |   |   |   |   |   |   |   |   hole_par <= 286: 6 (3.0)
|   |   |   |   |   |   |   |   |   |   hole_par > 286
|   |   |   |   |   |   |   |   |   |   |   sg_arg <= 0.03: 5 (4.0/1.0)
|   |   |   |   |   |   |   |   |   |   |   sg_arg > 0.03: 3 (3.0)
|   |   |   |   |   |   |   |   |   hole_par > 287
|   |   |   |   |   |   |   |   |   |   sg_total <= 0.48
|   |   |   |   |   |   |   |   |   |   |   strokes <= 282: 4 (14.0)
|   |   |   |   |   |   |   |   |   |   |   strokes > 282: 6 (2.0)
|   |   |   |   |   |   |   |   |   |   sg_total > 0.48
|   |   |   |   |   |   |   |   |   |   |   strokes <= 282
|   |   |   |   |   |   |   |   |   |   |   |   strokes <= 275
|   |   |   |   |   |   |   |   |   |   |   |   |   strokes <= 274: 5 (3.0/1.0)
|   |   |   |   |   |   |   |   |   |   |   |   |   strokes > 274: 3 (7.0)
|   |   |   |   |   |   |   |   |   |   |   |   strokes > 275
|   |   |   |   |   |   |   |   |   |   |   |   |   strokes <= 280
|   |   |   |   |   |   |   |   |   |   |   |   |   |   strokes <= 277
|   |   |   |   |   |   |   |   |   |   |   |   |   |   |   sg_total <= 0.57
|   |   |   |   |   |   |   |   |   |   |   |   |   |   |   |   sg_total <= 0.56: 4 (9.0/1.0)
|   |   |   |   |   |   |   |   |   |   |   |   |   |   |   |   sg_total > 0.56
|   |   |   |   |   |   |   |   |   |   |   |   |   |   |   |   |   sg_putt <= -0.2: 6 (2.0)
|   |   |   |   |   |   |   |   |   |   |   |   |   |   |   |   |   sg_putt > -0.2: 5 (2.0)
|   |   |   |   |   |   |   |   |   |   |   |   |   |   |   sg_total > 0.57: 4 (10.0)
|   |   |   |   |   |   |   |   |   |   |   |   |   |   strokes > 277
|   |   |   |   |   |   |   |   |   |   |   |   |   |   |   sg_ott <= 0.53: 5 (19.0)
|   |   |   |   |   |   |   |   |   |   |   |   |   |   |   sg_ott > 0.53: 6 (3.0/1.0)
|   |   |   |   |   |   |   |   |   |   |   |   |   strokes > 280
|   |   |   |   |   |   |   |   |   |   |   |   |   |   sg_total <= 0.52
|   |   |   |   |   |   |   |   |   |   |   |   |   |   |   sg_total <= 0.51: 3 (3.0/1.0)
|   |   |   |   |   |   |   |   |   |   |   |   |   |   |   sg_total > 0.51: 5 (6.0)
|   |   |   |   |   |   |   |   |   |   |   |   |   |   sg_total > 0.52
|   |   |   |   |   |   |   |   |   |   |   |   |   |   |   sg_total <= 0.58
|   |   |   |   |   |   |   |   |   |   |   |   |   |   |   |   sg_total <= 0.56: 4 (14.0/1.0)
|   |   |   |   |   |   |   |   |   |   |   |   |   |   |   |   sg_total > 0.56: 2 (6.0/2.0)
|   |   |   |   |   |   |   |   |   |   |   |   |   |   |   sg_total > 0.58: 4 (11.0)
|   |   |   |   |   |   |   |   |   |   |   strokes > 282
|   |   |   |   |   |   |   |   |   |   |   |   sg_total <= 0.55
|   |   |   |   |   |   |   |   |   |   |   |   |   sg_total <= 0.51: 4 (2.0)
|   |   |   |   |   |   |   |   |   |   |   |   |   sg_total > 0.51: 5 (11.0)
|   |   |   |   |   |   |   |   |   |   |   |   sg_total > 0.55: 3 (10.0)
|   |   |   |   |   |   strokes > 283
|   |   |   |   |   |   |   sg_total <= 0.46
|   |   |   |   |   |   |   |   hole_par <= 286: 5 (3.0)
|   |   |   |   |   |   |   |   hole_par > 286: 4 (6.0)
|   |   |   |   |   |   |   sg_total > 0.46
|   |   |   |   |   |   |   |   hole_par <= 282
|   |   |   |   |   |   |   |   |   sg_total <= 0.56: 5 (7.0)
|   |   |   |   |   |   |   |   |   sg_total > 0.56
|   |   |   |   |   |   |   |   |   |   sg_ott <= -0.15: 2 (3.0)
|   |   |   |   |   |   |   |   |   |   sg_ott > -0.15: 5 (9.0/2.0)
|   |   |   |   |   |   |   |   hole_par > 282
|   |   |   |   |   |   |   |   |   sg_total <= 0.52: 5 (51.0/1.0)
|   |   |   |   |   |   |   |   |   sg_total > 0.52
|   |   |   |   |   |   |   |   |   |   sg_total <= 0.57
|   |   |   |   |   |   |   |   |   |   |   strokes <= 285: 6 (2.0)
|   |   |   |   |   |   |   |   |   |   |   strokes > 285: 4 (4.0)
|   |   |   |   |   |   |   |   |   |   sg_total > 0.57: 5 (20.0)
|   |   |   |   |   strokes > 286
|   |   |   |   |   |   sg_total <= 0.51
|   |   |   |   |   |   |   strokes <= 292
|   |   |   |   |   |   |   |   sg_total <= 0.47
|   |   |   |   |   |   |   |   |   strokes <= 287: 5 (4.0)
|   |   |   |   |   |   |   |   |   strokes > 287: 6 (2.0)
|   |   |   |   |   |   |   |   sg_total > 0.47: 5 (15.0)
|   |   |   |   |   |   |   strokes > 292: 6 (4.0)
|   |   |   |   |   |   sg_total > 0.51
|   |   |   |   |   |   |   sg_total <= 0.58
|   |   |   |   |   |   |   |   strokes <= 294
|   |   |   |   |   |   |   |   |   sg_total <= 0.56
|   |   |   |   |   |   |   |   |   |   hole_par <= 286: 5 (3.0)
|   |   |   |   |   |   |   |   |   |   hole_par > 286
|   |   |   |   |   |   |   |   |   |   |   sg_total <= 0.53: 4 (11.0/2.0)
|   |   |   |   |   |   |   |   |   |   |   sg_total > 0.53
|   |   |   |   |   |   |   |   |   |   |   |   strokes <= 289
|   |   |   |   |   |   |   |   |   |   |   |   |   sg_total <= 0.54: 4 (5.0)
|   |   |   |   |   |   |   |   |   |   |   |   |   sg_total > 0.54: 5 (5.0)
|   |   |   |   |   |   |   |   |   |   |   |   strokes > 289
|   |   |   |   |   |   |   |   |   |   |   |   |   sg_total <= 0.54: 5 (2.0)
|   |   |   |   |   |   |   |   |   |   |   |   |   sg_total > 0.54: 4 (11.0)
|   |   |   |   |   |   |   |   |   sg_total > 0.56: 4 (19.0/1.0)
|   |   |   |   |   |   |   |   strokes > 294: 5 (5.0/1.0)
|   |   |   |   |   |   |   sg_total > 0.58
|   |   |   |   |   |   |   |   hole_par <= 286: 6 (4.0)
|   |   |   |   |   |   |   |   hole_par > 286: 5 (4.0)
|   |   |   sg_total > 0.59
|   |   |   |   sg_total <= 0.72
|   |   |   |   |   strokes <= 281
|   |   |   |   |   |   hole_par <= 215
|   |   |   |   |   |   |   hole_par <= 144: 4 (3.0)
|   |   |   |   |   |   |   hole_par > 144: 6 (4.0/1.0)
|   |   |   |   |   |   hole_par > 215
|   |   |   |   |   |   |   strokes <= 280
|   |   |   |   |   |   |   |   strokes <= 274
|   |   |   |   |   |   |   |   |   hole_par <= 285
|   |   |   |   |   |   |   |   |   |   hole_par <= 282
|   |   |   |   |   |   |   |   |   |   |   sg_total <= 0.64
|   |   |   |   |   |   |   |   |   |   |   |   strokes <= 273: 3 (6.0)
|   |   |   |   |   |   |   |   |   |   |   |   strokes > 273: 5 (4.0/1.0)
|   |   |   |   |   |   |   |   |   |   |   sg_total > 0.64
|   |   |   |   |   |   |   |   |   |   |   |   hole_par <= 280
|   |   |   |   |   |   |   |   |   |   |   |   |   sg_total <= 0.67: 4 (31.0/2.0)
|   |   |   |   |   |   |   |   |   |   |   |   |   sg_total > 0.67: 5 (5.0)
|   |   |   |   |   |   |   |   |   |   |   |   hole_par > 280: 3 (3.0/1.0)
|   |   |   |   |   |   |   |   |   |   hole_par > 282
|   |   |   |   |   |   |   |   |   |   |   sg_total <= 0.7: 5 (21.0)
|   |   |   |   |   |   |   |   |   |   |   sg_total > 0.7: 4 (5.0)
|   |   |   |   |   |   |   |   |   hole_par > 285
|   |   |   |   |   |   |   |   |   |   hole_par <= 287: 1 (2.0)
|   |   |   |   |   |   |   |   |   |   hole_par > 287: 3 (11.0)
|   |   |   |   |   |   |   |   strokes > 274
|   |   |   |   |   |   |   |   |   sg_total <= 0.62
|   |   |   |   |   |   |   |   |   |   strokes <= 277
|   |   |   |   |   |   |   |   |   |   |   hole_par <= 282
|   |   |   |   |   |   |   |   |   |   |   |   strokes <= 276: 2 (6.0/2.0)
|   |   |   |   |   |   |   |   |   |   |   |   strokes > 276: 5 (4.0)
|   |   |   |   |   |   |   |   |   |   |   hole_par > 282: 5 (9.0)
|   |   |   |   |   |   |   |   |   |   strokes > 277
|   |   |   |   |   |   |   |   |   |   |   hole_par <= 282: 5 (9.0)
|   |   |   |   |   |   |   |   |   |   |   hole_par > 282
|   |   |   |   |   |   |   |   |   |   |   |   hole_par <= 286
|   |   |   |   |   |   |   |   |   |   |   |   |   sg_total <= 0.6
|   |   |   |   |   |   |   |   |   |   |   |   |   |   strokes <= 278: 4 (5.0)
|   |   |   |   |   |   |   |   |   |   |   |   |   |   strokes > 278: 3 (2.0)
|   |   |   |   |   |   |   |   |   |   |   |   |   sg_total > 0.6: 4 (7.0)
|   |   |   |   |   |   |   |   |   |   |   |   hole_par > 286: 5 (4.0)
|   |   |   |   |   |   |   |   |   sg_total > 0.62
|   |   |   |   |   |   |   |   |   |   strokes <= 277
|   |   |   |   |   |   |   |   |   |   |   strokes <= 276
|   |   |   |   |   |   |   |   |   |   |   |   sg_total <= 0.64
|   |   |   |   |   |   |   |   |   |   |   |   |   hole_par <= 282: 2 (2.0)
|   |   |   |   |   |   |   |   |   |   |   |   |   hole_par > 282
|   |   |   |   |   |   |   |   |   |   |   |   |   |   strokes <= 275: 4 (5.0)
|   |   |   |   |   |   |   |   |   |   |   |   |   |   strokes > 275: 5 (2.0)
|   |   |   |   |   |   |   |   |   |   |   |   sg_total > 0.64: 4 (46.0/1.0)
|   |   |   |   |   |   |   |   |   |   |   strokes > 276
|   |   |   |   |   |   |   |   |   |   |   |   sg_total <= 0.64: 4 (9.0)
|   |   |   |   |   |   |   |   |   |   |   |   sg_total > 0.64
|   |   |   |   |   |   |   |   |   |   |   |   |   hole_par <= 282
|   |   |   |   |   |   |   |   |   |   |   |   |   |   sg_total <= 0.67: 3 (4.0)
|   |   |   |   |   |   |   |   |   |   |   |   |   |   sg_total > 0.67: 5 (7.0)
|   |   |   |   |   |   |   |   |   |   |   |   |   hole_par > 282: 2 (8.0/3.0)
|   |   |   |   |   |   |   |   |   |   strokes > 277
|   |   |   |   |   |   |   |   |   |   |   sg_total <= 0.71
|   |   |   |   |   |   |   |   |   |   |   |   strokes <= 279
|   |   |   |   |   |   |   |   |   |   |   |   |   sg_total <= 0.65
|   |   |   |   |   |   |   |   |   |   |   |   |   |   hole_par <= 286: 4 (29.0)
|   |   |   |   |   |   |   |   |   |   |   |   |   |   hole_par > 286
|   |   |   |   |   |   |   |   |   |   |   |   |   |   |   strokes <= 278: 5 (2.0)
|   |   |   |   |   |   |   |   |   |   |   |   |   |   |   strokes > 278: 4 (3.0)
|   |   |   |   |   |   |   |   |   |   |   |   |   sg_total > 0.65
|   |   |   |   |   |   |   |   |   |   |   |   |   |   hole_par <= 287: 5 (25.0)
|   |   |   |   |   |   |   |   |   |   |   |   |   |   hole_par > 287: 4 (3.0)
|   |   |   |   |   |   |   |   |   |   |   |   strokes > 279
|   |   |   |   |   |   |   |   |   |   |   |   |   sg_total <= 0.65: 5 (14.0)
|   |   |   |   |   |   |   |   |   |   |   |   |   sg_total > 0.65: 4 (28.0/2.0)
|   |   |   |   |   |   |   |   |   |   |   sg_total > 0.71: 4 (12.0)
|   |   |   |   |   |   |   strokes > 280
|   |   |   |   |   |   |   |   hole_par <= 282: 4 (22.0)
|   |   |   |   |   |   |   |   hole_par > 282
|   |   |   |   |   |   |   |   |   hole_par <= 285
|   |   |   |   |   |   |   |   |   |   sg_total <= 0.65
|   |   |   |   |   |   |   |   |   |   |   sg_total <= 0.61
|   |   |   |   |   |   |   |   |   |   |   |   sg_total <= 0.6: 4 (6.0)
|   |   |   |   |   |   |   |   |   |   |   |   sg_total > 0.6: 3 (6.0)
|   |   |   |   |   |   |   |   |   |   |   sg_total > 0.61: 4 (10.0)
|   |   |   |   |   |   |   |   |   |   sg_total > 0.65: 3 (11.0/1.0)
|   |   |   |   |   |   |   |   |   hole_par > 285: 4 (9.0/1.0)
|   |   |   |   |   strokes > 281
|   |   |   |   |   |   hole_par <= 282
|   |   |   |   |   |   |   strokes <= 283
|   |   |   |   |   |   |   |   strokes <= 282: 5 (7.0)
|   |   |   |   |   |   |   |   strokes > 282: 3 (4.0)
|   |   |   |   |   |   |   strokes > 283: 5 (13.0)
|   |   |   |   |   |   hole_par > 282
|   |   |   |   |   |   |   strokes <= 291
|   |   |   |   |   |   |   |   sg_total <= 0.66
|   |   |   |   |   |   |   |   |   hole_par <= 286: 4 (24.0)
|   |   |   |   |   |   |   |   |   hole_par > 286
|   |   |   |   |   |   |   |   |   |   strokes <= 290
|   |   |   |   |   |   |   |   |   |   |   sg_total <= 0.63
|   |   |   |   |   |   |   |   |   |   |   |   strokes <= 284
|   |   |   |   |   |   |   |   |   |   |   |   |   sg_total <= 0.61: 5 (5.0)
|   |   |   |   |   |   |   |   |   |   |   |   |   sg_total > 0.61: 4 (27.0)
|   |   |   |   |   |   |   |   |   |   |   |   strokes > 284
|   |   |   |   |   |   |   |   |   |   |   |   |   strokes <= 288: 5 (25.0)
|   |   |   |   |   |   |   |   |   |   |   |   |   strokes > 288: 4 (8.0)
|   |   |   |   |   |   |   |   |   |   |   sg_total > 0.63: 4 (35.0/1.0)
|   |   |   |   |   |   |   |   |   |   strokes > 290: 5 (6.0)
|   |   |   |   |   |   |   |   sg_total > 0.66
|   |   |   |   |   |   |   |   |   strokes <= 283
|   |   |   |   |   |   |   |   |   |   strokes <= 282
|   |   |   |   |   |   |   |   |   |   |   hole_par <= 285: 4 (2.0)
|   |   |   |   |   |   |   |   |   |   |   hole_par > 285: 5 (11.0)
|   |   |   |   |   |   |   |   |   |   strokes > 282
|   |   |   |   |   |   |   |   |   |   |   hole_par <= 286: 5 (11.0)
|   |   |   |   |   |   |   |   |   |   |   hole_par > 286: 3 (6.0/1.0)
|   |   |   |   |   |   |   |   |   strokes > 283
|   |   |   |   |   |   |   |   |   |   strokes <= 285
|   |   |   |   |   |   |   |   |   |   |   sg_total <= 0.67
|   |   |   |   |   |   |   |   |   |   |   |   hole_par <= 286: 5 (11.0)
|   |   |   |   |   |   |   |   |   |   |   |   hole_par > 286
|   |   |   |   |   |   |   |   |   |   |   |   |   strokes <= 284: 5 (5.0/1.0)
|   |   |   |   |   |   |   |   |   |   |   |   |   strokes > 284: 4 (4.0)
|   |   |   |   |   |   |   |   |   |   |   sg_total > 0.67: 4 (20.0/1.0)
|   |   |   |   |   |   |   |   |   |   strokes > 285
|   |   |   |   |   |   |   |   |   |   |   strokes <= 286: 5 (20.0)
|   |   |   |   |   |   |   |   |   |   |   strokes > 286
|   |   |   |   |   |   |   |   |   |   |   |   hole_par <= 286: 4 (3.0)
|   |   |   |   |   |   |   |   |   |   |   |   hole_par > 286: 5 (6.0/1.0)
|   |   |   |   |   |   |   strokes > 291
|   |   |   |   |   |   |   |   sg_total <= 0.62: 3 (5.0)
|   |   |   |   |   |   |   |   sg_total > 0.62: 4 (15.0/4.0)
|   |   |   |   sg_total > 0.72
|   |   |   |   |   strokes <= 273
|   |   |   |   |   |   hole_par <= 215
|   |   |   |   |   |   |   sg_total <= 0.81: 4 (9.0)
|   |   |   |   |   |   |   sg_total > 0.81
|   |   |   |   |   |   |   |   hole_par <= 144: 3 (2.0)
|   |   |   |   |   |   |   |   hole_par > 144: 6 (2.0)
|   |   |   |   |   |   hole_par > 215
|   |   |   |   |   |   |   strokes <= 270
|   |   |   |   |   |   |   |   hole_par <= 280
|   |   |   |   |   |   |   |   |   sg_total <= 0.81: 4 (9.0)
|   |   |   |   |   |   |   |   |   sg_total > 0.81
|   |   |   |   |   |   |   |   |   |   sg_total <= 0.89: 2 (5.0)
|   |   |   |   |   |   |   |   |   |   sg_total > 0.89: 4 (7.0)
|   |   |   |   |   |   |   |   hole_par > 280: 2 (7.0/1.0)
|   |   |   |   |   |   |   strokes > 270
|   |   |   |   |   |   |   |   sg_total <= 0.76: 4 (37.0)
|   |   |   |   |   |   |   |   sg_total > 0.76
|   |   |   |   |   |   |   |   |   sg_total <= 0.77: 5 (10.0/1.0)
|   |   |   |   |   |   |   |   |   sg_total > 0.77
|   |   |   |   |   |   |   |   |   |   strokes <= 272
|   |   |   |   |   |   |   |   |   |   |   hole_par <= 280: 4 (30.0/2.0)
|   |   |   |   |   |   |   |   |   |   |   hole_par > 280
|   |   |   |   |   |   |   |   |   |   |   |   sg_putt <= -0.16: 1 (2.0)
|   |   |   |   |   |   |   |   |   |   |   |   sg_putt > -0.16
|   |   |   |   |   |   |   |   |   |   |   |   |   sg_putt <= 0.41: 3 (2.0)
|   |   |   |   |   |   |   |   |   |   |   |   |   sg_putt > 0.41: 2 (2.0/1.0)
|   |   |   |   |   |   |   |   |   |   strokes > 272
|   |   |   |   |   |   |   |   |   |   |   sg_total <= 0.8
|   |   |   |   |   |   |   |   |   |   |   |   hole_par <= 284: 2 (6.0)
|   |   |   |   |   |   |   |   |   |   |   |   hole_par > 284: 4 (6.0)
|   |   |   |   |   |   |   |   |   |   |   sg_total > 0.8
|   |   |   |   |   |   |   |   |   |   |   |   sg_total <= 0.88
|   |   |   |   |   |   |   |   |   |   |   |   |   sg_total <= 0.82: 4 (4.0)
|   |   |   |   |   |   |   |   |   |   |   |   |   sg_total > 0.82: 5 (8.0/1.0)
|   |   |   |   |   |   |   |   |   |   |   |   sg_total > 0.88: 4 (11.0)
|   |   |   |   |   strokes > 273
|   |   |   |   |   |   strokes <= 285
|   |   |   |   |   |   |   hole_par <= 280
|   |   |   |   |   |   |   |   strokes <= 275
|   |   |   |   |   |   |   |   |   sg_total <= 0.82
|   |   |   |   |   |   |   |   |   |   sg_total <= 0.77: 2 (4.0)
|   |   |   |   |   |   |   |   |   |   sg_total > 0.77: 3 (5.0)
|   |   |   |   |   |   |   |   |   sg_total > 0.82
|   |   |   |   |   |   |   |   |   |   sg_total <= 0.89: 1 (9.0)
|   |   |   |   |   |   |   |   |   |   sg_total > 0.89: 4 (4.0)
|   |   |   |   |   |   |   |   strokes > 275
|   |   |   |   |   |   |   |   |   strokes <= 282
|   |   |   |   |   |   |   |   |   |   strokes <= 281
|   |   |   |   |   |   |   |   |   |   |   sg_total <= 0.83
|   |   |   |   |   |   |   |   |   |   |   |   sg_total <= 0.79
|   |   |   |   |   |   |   |   |   |   |   |   |   strokes <= 278
|   |   |   |   |   |   |   |   |   |   |   |   |   |   strokes <= 276: 4 (11.0)
|   |   |   |   |   |   |   |   |   |   |   |   |   |   strokes > 276: 1 (3.0/1.0)
|   |   |   |   |   |   |   |   |   |   |   |   |   strokes > 278
|   |   |   |   |   |   |   |   |   |   |   |   |   |   sg_total <= 0.76: 3 (9.0/1.0)
|   |   |   |   |   |   |   |   |   |   |   |   |   |   sg_total > 0.76: 4 (6.0)
|   |   |   |   |   |   |   |   |   |   |   |   sg_total > 0.79
|   |   |   |   |   |   |   |   |   |   |   |   |   sg_total <= 0.82: 5 (17.0)
|   |   |   |   |   |   |   |   |   |   |   |   |   sg_total > 0.82: 3 (2.0)
|   |   |   |   |   |   |   |   |   |   |   sg_total > 0.83
|   |   |   |   |   |   |   |   |   |   |   |   sg_total <= 0.86: 4 (29.0)
|   |   |   |   |   |   |   |   |   |   |   |   sg_total > 0.86
|   |   |   |   |   |   |   |   |   |   |   |   |   strokes <= 279
|   |   |   |   |   |   |   |   |   |   |   |   |   |   strokes <= 276: 3 (6.0)
|   |   |   |   |   |   |   |   |   |   |   |   |   |   strokes > 276
|   |   |   |   |   |   |   |   |   |   |   |   |   |   |   strokes <= 278
|   |   |   |   |   |   |   |   |   |   |   |   |   |   |   |   strokes <= 277: 4 (6.0)
|   |   |   |   |   |   |   |   |   |   |   |   |   |   |   |   strokes > 277: 5 (7.0/2.0)
|   |   |   |   |   |   |   |   |   |   |   |   |   |   |   strokes > 278: 4 (22.0)
|   |   |   |   |   |   |   |   |   |   |   |   |   strokes > 279: 3 (7.0)
|   |   |   |   |   |   |   |   |   |   strokes > 281: 3 (10.0/1.0)
|   |   |   |   |   |   |   |   |   strokes > 282
|   |   |   |   |   |   |   |   |   |   sg_total <= 0.8: 4 (17.0)
|   |   |   |   |   |   |   |   |   |   sg_total > 0.8
|   |   |   |   |   |   |   |   |   |   |   strokes <= 283: 4 (8.0)
|   |   |   |   |   |   |   |   |   |   |   strokes > 283
|   |   |   |   |   |   |   |   |   |   |   |   sg_ott <= 0.21: 4 (4.0)
|   |   |   |   |   |   |   |   |   |   |   |   sg_ott > 0.21: 2 (4.0)
|   |   |   |   |   |   |   hole_par > 280
|   |   |   |   |   |   |   |   strokes <= 276
|   |   |   |   |   |   |   |   |   sg_total <= 0.8
|   |   |   |   |   |   |   |   |   |   sg_total <= 0.76
|   |   |   |   |   |   |   |   |   |   |   strokes <= 274
|   |   |   |   |   |   |   |   |   |   |   |   sg_total <= 0.75
|   |   |   |   |   |   |   |   |   |   |   |   |   hole_par <= 282: 3 (2.0)
|   |   |   |   |   |   |   |   |   |   |   |   |   hole_par > 282: 5 (7.0)
|   |   |   |   |   |   |   |   |   |   |   |   sg_total > 0.75: 3 (2.0)
|   |   |   |   |   |   |   |   |   |   |   strokes > 274
|   |   |   |   |   |   |   |   |   |   |   |   sg_total <= 0.74
|   |   |   |   |   |   |   |   |   |   |   |   |   strokes <= 275: 3 (5.0)
|   |   |   |   |   |   |   |   |   |   |   |   |   strokes > 275: 4 (6.0)
|   |   |   |   |   |   |   |   |   |   |   |   sg_total > 0.74: 4 (12.0)
|   |   |   |   |   |   |   |   |   |   sg_total > 0.76: 5 (17.0)
|   |   |   |   |   |   |   |   |   sg_total > 0.8
|   |   |   |   |   |   |   |   |   |   strokes <= 274
|   |   |   |   |   |   |   |   |   |   |   sg_total <= 0.87
|   |   |   |   |   |   |   |   |   |   |   |   sg_total <= 0.83
|   |   |   |   |   |   |   |   |   |   |   |   |   sg_arg <= 0.09: 3 (6.0/1.0)
|   |   |   |   |   |   |   |   |   |   |   |   |   sg_arg > 0.09: 4 (8.0/1.0)
|   |   |   |   |   |   |   |   |   |   |   |   sg_total > 0.83: 4 (19.0)
|   |   |   |   |   |   |   |   |   |   |   sg_total > 0.87: 3 (15.0)
|   |   |   |   |   |   |   |   |   |   strokes > 274
|   |   |   |   |   |   |   |   |   |   |   sg_total <= 0.81: 3 (3.0)
|   |   |   |   |   |   |   |   |   |   |   sg_total > 0.81: 4 (33.0/4.0)
|   |   |   |   |   |   |   |   strokes > 276
|   |   |   |   |   |   |   |   |   strokes <= 281
|   |   |   |   |   |   |   |   |   |   sg_total <= 0.74
|   |   |   |   |   |   |   |   |   |   |   sg_app <= 2.1: 4 (17.0/2.0)
|   |   |   |   |   |   |   |   |   |   |   sg_app > 2.1: 1 (2.0/1.0)
|   |   |   |   |   |   |   |   |   |   sg_total > 0.74
|   |   |   |   |   |   |   |   |   |   |   hole_par <= 284
|   |   |   |   |   |   |   |   |   |   |   |   hole_par <= 282: 5 (2.0/1.0)
|   |   |   |   |   |   |   |   |   |   |   |   hole_par > 282
|   |   |   |   |   |   |   |   |   |   |   |   |   sg_total <= 0.89
|   |   |   |   |   |   |   |   |   |   |   |   |   |   sg_total <= 0.88
|   |   |   |   |   |   |   |   |   |   |   |   |   |   |   sg_total <= 0.85
|   |   |   |   |   |   |   |   |   |   |   |   |   |   |   |   sg_total <= 0.83
|   |   |   |   |   |   |   |   |   |   |   |   |   |   |   |   |   sg_total <= 0.81
|   |   |   |   |   |   |   |   |   |   |   |   |   |   |   |   |   |   sg_total <= 0.77
|   |   |   |   |   |   |   |   |   |   |   |   |   |   |   |   |   |   |   sg_total <= 0.75: 3 (9.0)
|   |   |   |   |   |   |   |   |   |   |   |   |   |   |   |   |   |   |   sg_total > 0.75: 4 (10.0)
|   |   |   |   |   |   |   |   |   |   |   |   |   |   |   |   |   |   sg_total > 0.77: 3 (20.0)
|   |   |   |   |   |   |   |   |   |   |   |   |   |   |   |   |   sg_total > 0.81: 4 (12.0)
|   |   |   |   |   |   |   |   |   |   |   |   |   |   |   |   sg_total > 0.83
|   |   |   |   |   |   |   |   |   |   |   |   |   |   |   |   |   sg_total <= 0.84: 3 (8.0)
|   |   |   |   |   |   |   |   |   |   |   |   |   |   |   |   |   sg_total > 0.84
|   |   |   |   |   |   |   |   |   |   |   |   |   |   |   |   |   |   strokes <= 277: 3 (7.0)
|   |   |   |   |   |   |   |   |   |   |   |   |   |   |   |   |   |   strokes > 277
|   |   |   |   |   |   |   |   |   |   |   |   |   |   |   |   |   |   |   strokes <= 279: 2 (5.0)
|   |   |   |   |   |   |   |   |   |   |   |   |   |   |   |   |   |   |   strokes > 279: 3 (6.0)
|   |   |   |   |   |   |   |   |   |   |   |   |   |   |   sg_total > 0.85
|   |   |   |   |   |   |   |   |   |   |   |   |   |   |   |   sg_total <= 0.86
|   |   |   |   |   |   |   |   |   |   |   |   |   |   |   |   |   strokes <= 279: 4 (7.0/1.0)
|   |   |   |   |   |   |   |   |   |   |   |   |   |   |   |   |   strokes > 279: 3 (2.0)
|   |   |   |   |   |   |   |   |   |   |   |   |   |   |   |   sg_total > 0.86: 4 (5.0)
|   |   |   |   |   |   |   |   |   |   |   |   |   |   sg_total > 0.88: 3 (12.0)
|   |   |   |   |   |   |   |   |   |   |   |   |   sg_total > 0.89: 4 (5.0)
|   |   |   |   |   |   |   |   |   |   |   hole_par > 284
|   |   |   |   |   |   |   |   |   |   |   |   strokes <= 279: 4 (47.0/1.0)
|   |   |   |   |   |   |   |   |   |   |   |   strokes > 279
|   |   |   |   |   |   |   |   |   |   |   |   |   sg_total <= 0.81
|   |   |   |   |   |   |   |   |   |   |   |   |   |   sg_total <= 0.76
|   |   |   |   |   |   |   |   |   |   |   |   |   |   |   hole_par <= 287: 3 (3.0)
|   |   |   |   |   |   |   |   |   |   |   |   |   |   |   hole_par > 287: 4 (3.0/1.0)
|   |   |   |   |   |   |   |   |   |   |   |   |   |   sg_total > 0.76: 4 (22.0)
|   |   |   |   |   |   |   |   |   |   |   |   |   sg_total > 0.81
|   |   |   |   |   |   |   |   |   |   |   |   |   |   sg_total <= 0.88
|   |   |   |   |   |   |   |   |   |   |   |   |   |   |   sg_total <= 0.83: 2 (3.0)
|   |   |   |   |   |   |   |   |   |   |   |   |   |   |   sg_total > 0.83: 3 (20.0/3.0)
|   |   |   |   |   |   |   |   |   |   |   |   |   |   sg_total > 0.88: 4 (6.0)
|   |   |   |   |   |   |   |   |   strokes > 281
|   |   |   |   |   |   |   |   |   |   sg_total <= 0.89
|   |   |   |   |   |   |   |   |   |   |   strokes <= 282
|   |   |   |   |   |   |   |   |   |   |   |   sg_total <= 0.85
|   |   |   |   |   |   |   |   |   |   |   |   |   sg_total <= 0.79
|   |   |   |   |   |   |   |   |   |   |   |   |   |   hole_par <= 285
|   |   |   |   |   |   |   |   |   |   |   |   |   |   |   sg_total <= 0.76: 3 (7.0)
|   |   |   |   |   |   |   |   |   |   |   |   |   |   |   sg_total > 0.76: 4 (7.0)
|   |   |   |   |   |   |   |   |   |   |   |   |   |   hole_par > 285
|   |   |   |   |   |   |   |   |   |   |   |   |   |   |   sg_total <= 0.76: 4 (2.0)
|   |   |   |   |   |   |   |   |   |   |   |   |   |   |   sg_total > 0.76: 5 (9.0)
|   |   |   |   |   |   |   |   |   |   |   |   |   sg_total > 0.79
|   |   |   |   |   |   |   |   |   |   |   |   |   |   hole_par <= 286
|   |   |   |   |   |   |   |   |   |   |   |   |   |   |   sg_total <= 0.84: 5 (6.0)
|   |   |   |   |   |   |   |   |   |   |   |   |   |   |   sg_total > 0.84: 3 (6.0)
|   |   |   |   |   |   |   |   |   |   |   |   |   |   hole_par > 286: 3 (8.0/1.0)
|   |   |   |   |   |   |   |   |   |   |   |   sg_total > 0.85: 4 (14.0)
|   |   |   |   |   |   |   |   |   |   |   strokes > 282
|   |   |   |   |   |   |   |   |   |   |   |   sg_total <= 0.77: 4 (32.0/2.0)
|   |   |   |   |   |   |   |   |   |   |   |   sg_total > 0.77
|   |   |   |   |   |   |   |   |   |   |   |   |   strokes <= 283
|   |   |   |   |   |   |   |   |   |   |   |   |   |   hole_par <= 285: 4 (11.0)
|   |   |   |   |   |   |   |   |   |   |   |   |   |   hole_par > 285
|   |   |   |   |   |   |   |   |   |   |   |   |   |   |   sg_total <= 0.87: 3 (7.0/1.0)
|   |   |   |   |   |   |   |   |   |   |   |   |   |   |   sg_total > 0.87: 4 (4.0)
|   |   |   |   |   |   |   |   |   |   |   |   |   strokes > 283
|   |   |   |   |   |   |   |   |   |   |   |   |   |   hole_par <= 286: 3 (2.0)
|   |   |   |   |   |   |   |   |   |   |   |   |   |   hole_par > 286: 4 (33.0/5.0)
|   |   |   |   |   |   |   |   |   |   sg_total > 0.89: 3 (18.0)
|   |   |   |   |   |   strokes > 285
|   |   |   |   |   |   |   sg_total <= 0.82
|   |   |   |   |   |   |   |   sg_total <= 0.76
|   |   |   |   |   |   |   |   |   sg_total <= 0.74: 4 (9.0)
|   |   |   |   |   |   |   |   |   sg_total > 0.74: 5 (10.0/2.0)
|   |   |   |   |   |   |   |   sg_total > 0.76: 4 (56.0/4.0)
|   |   |   |   |   |   |   sg_total > 0.82
|   |   |   |   |   |   |   |   sg_total <= 0.89
|   |   |   |   |   |   |   |   |   strokes <= 289
|   |   |   |   |   |   |   |   |   |   hole_par <= 286: 5 (19.0/1.0)
|   |   |   |   |   |   |   |   |   |   hole_par > 286
|   |   |   |   |   |   |   |   |   |   |   strokes <= 286
|   |   |   |   |   |   |   |   |   |   |   |   sg_total <= 0.86: 5 (9.0)
|   |   |   |   |   |   |   |   |   |   |   |   sg_total > 0.86: 3 (2.0)
|   |   |   |   |   |   |   |   |   |   |   strokes > 286
|   |   |   |   |   |   |   |   |   |   |   |   sg_total <= 0.87: 4 (12.0/1.0)
|   |   |   |   |   |   |   |   |   |   |   |   sg_total > 0.87
|   |   |   |   |   |   |   |   |   |   |   |   |   sg_putt <= 1.31: 5 (2.0)
|   |   |   |   |   |   |   |   |   |   |   |   |   sg_putt > 1.31: 4 (2.0/1.0)
|   |   |   |   |   |   |   |   |   strokes > 289
|   |   |   |   |   |   |   |   |   |   strokes <= 290: 2 (2.0/1.0)
|   |   |   |   |   |   |   |   |   |   strokes > 290: 3 (8.0/1.0)
|   |   |   |   |   |   |   |   sg_total > 0.89: 4 (15.0)
|   |   hole_par > 288: 2 (33.0)
sg_total > 0.91
|   sg_total <= 1.84
|   |   sg_total <= 1.34
|   |   |   sg_total <= 1.09
|   |   |   |   strokes <= 284
|   |   |   |   |   hole_par <= 286
|   |   |   |   |   |   hole_par <= 282
|   |   |   |   |   |   |   sg_total <= 1.07
|   |   |   |   |   |   |   |   hole_par <= 280
|   |   |   |   |   |   |   |   |   strokes <= 271
|   |   |   |   |   |   |   |   |   |   sg_total <= 0.92: 3 (8.0)
|   |   |   |   |   |   |   |   |   |   sg_total > 0.92
|   |   |   |   |   |   |   |   |   |   |   sg_total <= 1.01
|   |   |   |   |   |   |   |   |   |   |   |   sg_total <= 1: 4 (16.0/1.0)
|   |   |   |   |   |   |   |   |   |   |   |   sg_total > 1: 3 (4.0)
|   |   |   |   |   |   |   |   |   |   |   sg_total > 1.01: 4 (26.0)
|   |   |   |   |   |   |   |   |   strokes > 271
|   |   |   |   |   |   |   |   |   |   sg_total <= 0.94
|   |   |   |   |   |   |   |   |   |   |   strokes <= 273: 1 (5.0/1.0)
|   |   |   |   |   |   |   |   |   |   |   strokes > 273
|   |   |   |   |   |   |   |   |   |   |   |   sg_total <= 0.92
|   |   |   |   |   |   |   |   |   |   |   |   |   strokes <= 282: 2 (4.0)
|   |   |   |   |   |   |   |   |   |   |   |   |   strokes > 282: 4 (6.0)
|   |   |   |   |   |   |   |   |   |   |   |   sg_total > 0.92: 4 (14.0)
|   |   |   |   |   |   |   |   |   |   sg_total > 0.94
|   |   |   |   |   |   |   |   |   |   |   strokes <= 274
|   |   |   |   |   |   |   |   |   |   |   |   sg_total <= 1.05: 2 (15.0)
|   |   |   |   |   |   |   |   |   |   |   |   sg_total > 1.05: 3 (5.0)
|   |   |   |   |   |   |   |   |   |   |   strokes > 274
|   |   |   |   |   |   |   |   |   |   |   |   sg_total <= 1.05
|   |   |   |   |   |   |   |   |   |   |   |   |   strokes <= 279
|   |   |   |   |   |   |   |   |   |   |   |   |   |   sg_total <= 0.98: 4 (15.0)
|   |   |   |   |   |   |   |   |   |   |   |   |   |   sg_total > 0.98
|   |   |   |   |   |   |   |   |   |   |   |   |   |   |   sg_total <= 1.01: 3 (10.0)
|   |   |   |   |   |   |   |   |   |   |   |   |   |   |   sg_total > 1.01
|   |   |   |   |   |   |   |   |   |   |   |   |   |   |   |   strokes <= 277: 1 (2.0/1.0)
|   |   |   |   |   |   |   |   |   |   |   |   |   |   |   |   strokes > 277: 4 (4.0)
|   |   |   |   |   |   |   |   |   |   |   |   |   strokes > 279
|   |   |   |   |   |   |   |   |   |   |   |   |   |   strokes <= 282: 3 (20.0)
|   |   |   |   |   |   |   |   |   |   |   |   |   |   strokes > 282
|   |   |   |   |   |   |   |   |   |   |   |   |   |   |   strokes <= 283: 4 (2.0)
|   |   |   |   |   |   |   |   |   |   |   |   |   |   |   strokes > 283: 3 (4.0)
|   |   |   |   |   |   |   |   |   |   |   |   sg_total > 1.05
|   |   |   |   |   |   |   |   |   |   |   |   |   strokes <= 281: 4 (13.0)
|   |   |   |   |   |   |   |   |   |   |   |   |   strokes > 281
|   |   |   |   |   |   |   |   |   |   |   |   |   |   sg_arg <= -0.1: 4 (2.0)
|   |   |   |   |   |   |   |   |   |   |   |   |   |   sg_arg > -0.1: 2 (5.0/1.0)
|   |   |   |   |   |   |   |   hole_par > 280
|   |   |   |   |   |   |   |   |   strokes <= 270: 2 (3.0/1.0)
|   |   |   |   |   |   |   |   |   strokes > 270: 3 (14.0/2.0)
|   |   |   |   |   |   |   sg_total > 1.07: 3 (33.0/5.0)
|   |   |   |   |   |   hole_par > 282
|   |   |   |   |   |   |   strokes <= 273
|   |   |   |   |   |   |   |   sg_total <= 0.95: 4 (17.0)
|   |   |   |   |   |   |   |   sg_total > 0.95
|   |   |   |   |   |   |   |   |   strokes <= 271
|   |   |   |   |   |   |   |   |   |   strokes <= 270: 3 (7.0)
|   |   |   |   |   |   |   |   |   |   strokes > 270: 4 (5.0)
|   |   |   |   |   |   |   |   |   strokes > 271
|   |   |   |   |   |   |   |   |   |   sg_putt <= -1: 5 (2.0)
|   |   |   |   |   |   |   |   |   |   sg_putt > -1: 3 (31.0/2.0)
|   |   |   |   |   |   |   strokes > 273
|   |   |   |   |   |   |   |   strokes <= 278
|   |   |   |   |   |   |   |   |   sg_total <= 1
|   |   |   |   |   |   |   |   |   |   strokes <= 274
|   |   |   |   |   |   |   |   |   |   |   sg_ott <= 0.53: 3 (10.0)
|   |   |   |   |   |   |   |   |   |   |   sg_ott > 0.53: 2 (5.0/1.0)
|   |   |   |   |   |   |   |   |   |   strokes > 274
|   |   |   |   |   |   |   |   |   |   |   sg_total <= 0.99
|   |   |   |   |   |   |   |   |   |   |   |   sg_total <= 0.98
|   |   |   |   |   |   |   |   |   |   |   |   |   strokes <= 276: 3 (4.0)
|   |   |   |   |   |   |   |   |   |   |   |   |   strokes > 276: 4 (23.0/1.0)
|   |   |   |   |   |   |   |   |   |   |   |   sg_total > 0.98
|   |   |   |   |   |   |   |   |   |   |   |   |   strokes <= 276: 4 (3.0)
|   |   |   |   |   |   |   |   |   |   |   |   |   strokes > 276: 3 (6.0)
|   |   |   |   |   |   |   |   |   |   |   sg_total > 0.99: 2 (4.0)
|   |   |   |   |   |   |   |   |   sg_total > 1
|   |   |   |   |   |   |   |   |   |   strokes <= 276: 4 (30.0)
|   |   |   |   |   |   |   |   |   |   strokes > 276
|   |   |   |   |   |   |   |   |   |   |   sg_total <= 1.02: 4 (19.0)
|   |   |   |   |   |   |   |   |   |   |   sg_total > 1.02: 3 (17.0)
|   |   |   |   |   |   |   |   strokes > 278
|   |   |   |   |   |   |   |   |   strokes <= 283
|   |   |   |   |   |   |   |   |   |   sg_total <= 0.93: 3 (8.0)
|   |   |   |   |   |   |   |   |   |   sg_total > 0.93
|   |   |   |   |   |   |   |   |   |   |   sg_total <= 0.98
|   |   |   |   |   |   |   |   |   |   |   |   strokes <= 279: 3 (3.0)
|   |   |   |   |   |   |   |   |   |   |   |   strokes > 279: 4 (29.0/1.0)
|   |   |   |   |   |   |   |   |   |   |   sg_total > 0.98
|   |   |   |   |   |   |   |   |   |   |   |   sg_total <= 1.02
|   |   |   |   |   |   |   |   |   |   |   |   |   sg_total <= 0.99
|   |   |   |   |   |   |   |   |   |   |   |   |   |   strokes <= 282: 3 (4.0)
|   |   |   |   |   |   |   |   |   |   |   |   |   |   strokes > 282: 4 (5.0)
|   |   |   |   |   |   |   |   |   |   |   |   |   sg_total > 0.99: 3 (21.0)
|   |   |   |   |   |   |   |   |   |   |   |   sg_total > 1.02
|   |   |   |   |   |   |   |   |   |   |   |   |   strokes <= 281
|   |   |   |   |   |   |   |   |   |   |   |   |   |   sg_total <= 1.06
|   |   |   |   |   |   |   |   |   |   |   |   |   |   |   strokes <= 280: 3 (2.0)
|   |   |   |   |   |   |   |   |   |   |   |   |   |   |   strokes > 280: 4 (4.0)
|   |   |   |   |   |   |   |   |   |   |   |   |   |   sg_total > 1.06: 4 (16.0)
|   |   |   |   |   |   |   |   |   |   |   |   |   strokes > 281
|   |   |   |   |   |   |   |   |   |   |   |   |   |   sg_total <= 1.08: 3 (11.0)
|   |   |   |   |   |   |   |   |   |   |   |   |   |   sg_total > 1.08: 4 (7.0)
|   |   |   |   |   |   |   |   |   strokes > 283: 4 (8.0)
|   |   |   |   |   hole_par > 286
|   |   |   |   |   |   hole_par <= 288
|   |   |   |   |   |   |   strokes <= 273
|   |   |   |   |   |   |   |   sg_total <= 1.02: 2 (24.0/1.0)
|   |   |   |   |   |   |   |   sg_total > 1.02: 4 (7.0/1.0)
|   |   |   |   |   |   |   strokes > 273
|   |   |   |   |   |   |   |   hole_par <= 287
|   |   |   |   |   |   |   |   |   sg_total <= 1
|   |   |   |   |   |   |   |   |   |   sg_total <= 0.93
|   |   |   |   |   |   |   |   |   |   |   strokes <= 280: 1 (2.0)
|   |   |   |   |   |   |   |   |   |   |   strokes > 280: 4 (2.0/1.0)
|   |   |   |   |   |   |   |   |   |   sg_total > 0.93: 4 (4.0/1.0)
|   |   |   |   |   |   |   |   |   sg_total > 1
|   |   |   |   |   |   |   |   |   |   sg_total <= 1.03: 5 (4.0/1.0)
|   |   |   |   |   |   |   |   |   |   sg_total > 1.03: 3 (4.0/1.0)
|   |   |   |   |   |   |   |   hole_par > 287
|   |   |   |   |   |   |   |   |   sg_total <= 0.97
|   |   |   |   |   |   |   |   |   |   sg_total <= 0.96
|   |   |   |   |   |   |   |   |   |   |   strokes <= 282
|   |   |   |   |   |   |   |   |   |   |   |   strokes <= 277
|   |   |   |   |   |   |   |   |   |   |   |   |   strokes <= 275: 4 (3.0)
|   |   |   |   |   |   |   |   |   |   |   |   |   strokes > 275: 2 (3.0)
|   |   |   |   |   |   |   |   |   |   |   |   strokes > 277: 3 (17.0)
|   |   |   |   |   |   |   |   |   |   |   strokes > 282: 4 (12.0)
|   |   |   |   |   |   |   |   |   |   sg_total > 0.96
|   |   |   |   |   |   |   |   |   |   |   strokes <= 280: 4 (6.0)
|   |   |   |   |   |   |   |   |   |   |   strokes > 280: 5 (7.0)
|   |   |   |   |   |   |   |   |   sg_total > 0.97
|   |   |   |   |   |   |   |   |   |   strokes <= 275
|   |   |   |   |   |   |   |   |   |   |   strokes <= 274
|   |   |   |   |   |   |   |   |   |   |   |   sg_ott <= 0.41: 3 (12.0)
|   |   |   |   |   |   |   |   |   |   |   |   sg_ott > 0.41
|   |   |   |   |   |   |   |   |   |   |   |   |   sg_putt <= 0.63: 1 (2.0)
|   |   |   |   |   |   |   |   |   |   |   |   |   sg_putt > 0.63: 3 (2.0)
|   |   |   |   |   |   |   |   |   |   |   strokes > 274: 4 (13.0/1.0)
